
{
    "layers": [
        {
            "output_shape": {"shape": [1,1,28,28]},
            "input_shape": {"shape": [1,1,28,28]},
            "name": "In",
            "show_values": true,
            "type": "InputLayer"
        },
        {
            "output_shape": {"shape": [1,784]},
            "input_shape": {"shape": [1,1,28,28]},
            "name": "Flatten",
            "type": "Flatten"
        },
        {
            "output_shape": {"shape": [1,10]},
            "loss": {"type": "CrossEntropy"},
            "input_shape": {"shape": [1,784]},
            "bias": [0.2259255051612854,0.06994745135307312,-0.02688201889395714,-0.06533662974834442,-0.38556668162345886,-0.48382851481437683,0.1967926174402237,-0.4797509014606476,1.1806968450546265,-0.23199045658111572],
            "name": "Out",
            "type": "OutputSoftmax",
            "activation": {"type": "Softmax"},
            "weights": [-0.06651784479618073,-0.01848637498915195,-0.03408989310264587,0.05267566442489624,-0.13668625056743622,-0.24817271530628204,-0.27500689029693604,-0.15005916357040405,0.0528336726129055,0.2566153109073639,-0.22989165782928467,0.3869130313396454,-0.01210961025208235,-0.594427227973938,-0.477066308259964,-0.445039838552475,0.5001209378242493,0.2231975495815277,0.16853538155555725,0.11768817156553268,0.13286559283733368,-0.22661139070987701,-0.2532925307750702,-0.20255513489246368,0.0281619019806385,-0.1340036690235138,-0.08551844209432602,-0.09739856421947479,-0.0625947117805481,-0.01689481362700462,0.02695833332836628,-0.01347855012863874,-0.15354840457439423,-0.4511547386646271,-0.6220937371253967,-0.00851387158036232,0.05253046378493309,-0.2692764103412628,-0.07186580449342728,0.1786038726568222,-0.14742642641067505,0.03163528442382812,0.21099336445331573,0.35765916109085083,0.05667294561862946,-0.05620933324098587,0.03606846556067467,-0.10456691682338715,0.3406393826007843,-0.07553276419639587,-0.36592915654182434,-0.13240818679332733,-0.0104741919785738,0.0598643384873867,-0.09736879169940948,-0.02372349612414837,-0.0919116660952568,-0.15449921786785126,-0.03040904924273491,0.0111598176881671,-0.0944102331995964,-0.01956344582140446,-0.1892307996749878,0.24760189652442932,0.2944357991218567,-0.083440862596035,0.08258458226919174,-0.06429728120565414,0.14155451953411102,0.2782212197780609,0.19219344854354858,0.23431581258773804,0.01686567813158035,0.18782149255275726,-0.04561782628297806,-0.04307829961180687,0.19518055021762848,0.12701164186000824,0.1532299965620041,0.14508745074272156,0.3307753801345825,-0.01751668937504292,-0.07292024046182632,-0.0929822102189064,-0.03891044110059738,-0.1194603219628334,-0.04378937184810638,-0.09658252447843552,-0.03944244980812073,0.04816616699099541,0.11505277454853058,0.05259005725383759,0.17079560458660126,0.3279494643211365,0.08380670845508575,-0.14912837743759155,0.09490134567022324,-0.00640381313860416,-0.07233381271362305,-0.01589771546423435,0.06012224406003952,-0.05538968741893768,0.08885683864355087,-0.05917764082551003,-0.05630017071962357,0.33318814635276794,0.07796265929937363,0.26629701256752014,0.35234516859054565,3.7980146589689E-4,-0.05728359147906303,-0.14937087893486023,-0.11175272613763809,-0.12824927270412445,-0.1388062834739685,0.06215300410985947,0.00241995300166309,0.06379745155572891,0.2220434844493866,-0.16989277303218842,0.0101917777210474,0.376236230134964,-0.02477816864848137,-0.22718630731105804,0.09712561964988708,-0.01388141047209501,-0.23605984449386597,0.1901756078004837,-0.16113081574440002,-0.2897774577140808,0.12216479331254959,0.14674870669841766,0.03384516760706902,0.07394980639219284,0.34005531668663025,0.25406795740127563,0.3093651235103607,-0.00543384067714214,-0.18999876081943512,-0.12003466486930847,-0.02908779494464397,-0.20363546907901764,-0.07908394187688828,0.00159786536823958,0.5375227332115173,0.03950971364974976,0.1879548877477646,-0.32060956954956055,-0.0630452036857605,-0.08913233876228333,-0.1698455661535263,-0.1473875492811203,-0.12479113042354584,-0.06391862779855728,-0.16069364547729492,-0.02445540204644203,-0.2726559638977051,0.19551844894886017,0.03067828342318535,0.05782533064484596,-0.12762263417243958,-0.2263234406709671,0.17883838713169098,0.1248779445886612,0.07444973289966583,-0.0279044434428215,-0.3209485113620758,-0.15225745737552643,-0.02164182439446449,0.08953648060560226,0.16162480413913727,0.06942816078662872,0.18041613698005676,0.1830897033214569,0.21261052787303925,-0.05950438231229782,0.36509957909584045,-0.14719361066818237,0.22476330399513245,0.05275924131274223,-0.32608604431152344,0.2827928066253662,-0.11373752355575562,0.12693527340888977,-0.01970425806939602,-0.06376531720161438,0.08122458308935165,0.28350844979286194,-0.1759810894727707,-0.1662828028202057,0.185600146651268,0.20913133025169373,0.11206866800785065,0.24598459899425507,-0.09462835639715195,-0.146447092294693,3.5873963497579E-4,0.23716606199741364,0.19911621510982513,0.11454514414072037,0.23339156806468964,0.14897313714027405,0.16074471175670624,0.05298932641744614,0.2234211415052414,-0.08488338440656662,-0.09085457772016525,0.10023088753223419,0.03338858857750893,0.05717410892248154,-0.38486260175704956,-0.14020375907421112,0.09540150314569473,0.03737948834896088,-0.12364443391561508,0.43325182795524597,0.2039397954940796,-0.05103769898414612,0.2117861658334732,0.00891325622797012,0.2445390224456787,0.20150896906852722,0.01307884696871042,-0.11443823575973511,0.0054261009208858,0.1604166328907013,0.3543490171432495,0.17435012757778168,0.45195117592811584,0.2568455934524536,0.42643165588378906,0.5110487937927246,0.38007986545562744,0.2800392508506775,0.09052704274654388,-0.13329963386058807,0.05309327691793442,-0.03989865630865097,-0.05385255068540573,0.03347444534301758,-0.05248042196035385,0.13461273908615112,0.10031729936599731,0.34419938921928406,0.07909481227397919,0.00524237472563982,0.15269170701503754,-0.10219896584749222,0.22234155237674713,-0.04390572383999825,-0.13916361331939697,-0.04579796269536018,-0.03299659118056297,-0.01595763862133026,0.34070542454719543,0.43162286281585693,0.5122755169868469,0.36993905901908875,0.26785704493522644,0.3211750090122223,0.3760790228843689,0.2813689708709717,0.18288157880306244,-0.10053865611553192,-0.01462166756391525,0.13140401244163513,0.16870366036891937,0.11072372645139694,0.002236861968413,-0.00437934510409832,0.06316843628883362,-0.08353081345558167,0.01953215524554253,0.30226099491119385,0.22588437795639038,-0.03355858102440834,0.01377253141254187,-0.14564324915409088,-0.01524901390075684,-0.1256631463766098,-0.1662505865097046,-0.10024935007095337,0.13904818892478943,-0.13359878957271576,0.3489522337913513,0.5114694833755493,-0.0262958537787199,0.3293008506298065,0.3190229535102844,0.47512882947921753,0.0014655243139714,-0.02330760098993778,0.08140360563993454,-0.16131237149238586,-6.688098073937E-4,-0.04381760209798813,0.0162821002304554,0.1655888855457306,0.166625514626503,0.08744000643491745,0.14663587510585785,0.2380169928073883,0.19256405532360077,0.21779890358448029,-0.05423540249466896,-0.39571669697761536,-0.23979735374450684,-0.19564881920814514,-0.10338400304317474,-0.02765555679798126,0.3575313091278076,0.00630001910030842,0.12444894015789032,0.08777382224798203,-0.04660984128713608,-0.14431756734848022,0.10902493447065353,0.04829197004437447,-0.00371610093861818,0.11539173871278763,-0.12865087389945984,-0.12055305391550064,0.06866174191236496,0.04739082232117653,-0.07065029442310333,-0.1156117171049118,0.3110722303390503,-0.05994952097535133,-0.08003559708595276,0.07669860869646072,0.05675136670470238,0.192217618227005,-0.0358080230653286,-0.197381854057312,-0.2910713851451874,-0.1369485855102539,0.03146861121058464,0.11144965887069702,0.272796630859375,-0.01601000502705574,0.2626809775829315,0.08349080383777618,-0.1553879678249359,-0.19805893301963806,-0.00107658514752984,0.22885769605636597,0.21125976741313934,-0.01286757178604603,-0.01483250223100185,-0.15254440903663635,-0.22352147102355957,-0.08900586515665054,0.0910915806889534,0.05602923780679703,0.03863146156072617,0.08987665921449661,-0.05861704796552658,-0.2078505903482437,-0.16071762144565582,0.1542607992887497,-0.05610984191298485,-0.07207264006137848,-0.02068948931992054,-0.19474956393241882,-0.08390181511640549,0.11329378932714462,0.08458024263381958,-0.06598065793514252,-0.19297803938388824,0.00136789144016802,-0.03810330107808113,-0.19276827573776245,0.08337704092264175,0.24781514704227448,-0.16784369945526123,-0.01812480017542839,0.00925807747989893,-0.13014887273311615,-0.06495454907417297,-0.03365141898393631,-0.12237145751714706,0.06558261811733246,0.1884637176990509,-0.03458767384290695,-0.1231217086315155,-0.14806436002254486,-0.1300753355026245,-0.16849568486213684,-0.18677496910095215,-0.22476042807102203,-0.07423263043165207,-0.04795999452471733,-0.06796631217002869,0.05236057564616203,0.04667844995856285,0.01128801517188549,0.0666363313794136,-0.00848456937819719,-0.13412070274353027,-0.16058515012264252,-0.03448449447751045,0.26347798109054565,0.08696164190769196,-0.02152617089450359,-0.1444351077079773,0.15597423911094666,-0.09442627429962158,-0.0773373693227768,-0.10848886519670486,-0.04391326755285263,-0.21185772120952606,-0.23792897164821625,-0.40290331840515137,-0.20381265878677368,-0.2918238639831543,-0.1744728833436966,-0.3351190388202667,-0.20671439170837402,-0.08010639995336533,-0.07655830681324005,-0.05252095684409142,0.04279366135597229,0.08992603421211243,-0.13147005438804626,-0.05046987906098366,0.01440164726227522,-0.01006430573761463,-0.03245168924331665,-0.23166927695274353,-0.03648520261049271,0.17652678489685059,-0.05222729220986366,-0.02341134659945965,-0.04875439405441284,0.23022326827049255,0.15696175396442413,0.08435385674238205,0.18448323011398315,-0.13024896383285522,-0.18916533887386322,-0.262927770614624,-0.02771389856934547,-0.294499009847641,-0.10730167478322983,-0.27140048146247864,-0.07658800482749939,-0.01897197216749191,-0.101542167365551,-0.14305593073368073,-0.07687705010175705,0.02163255959749222,-0.10614142566919327,0.01067302189767361,-0.00500794919207692,0.17656071484088898,-0.01914126984775066,-0.07242872565984726,0.1846906840801239,0.11067727208137512,0.07082702219486237,0.03255721554160118,0.13808920979499817,0.09206485003232956,-0.03916673362255096,-0.16403675079345703,0.01671245135366917,-0.10168551653623581,-0.2355741411447525,-0.22797776758670807,0.03267126157879829,-0.02504426240921021,-0.06950521469116211,-0.06991978734731674,-0.13581672310829163,-0.11746741831302643,-0.04427320882678032,-0.13814057409763336,-0.25169336795806885,-0.17713329195976257,-0.18067263066768646,0.1072164997458458,0.05823341012001038,-0.0364428237080574,-0.00478107715025544,-0.07831771671772003,0.07782860100269318,0.02023404277861118,-0.06532153487205505,-0.11775811016559601,0.10007283836603165,0.05271824821829796,-0.07507693767547607,-0.0209741834551096,0.20528064668178558,-0.07625841349363327,-0.19216765463352203,-0.25301533937454224,-0.19540344178676605,0.09217346459627151,-0.06458207964897156,-0.10555752366781235,-0.04071367159485817,-0.3151188790798187,-0.2448316216468811,-0.08559155464172363,-0.21164396405220032,-0.18365027010440826,-0.16182246804237366,-0.08617672324180603,-0.06615467369556427,-0.00706279091536999,-0.05553588271141052,0.04401424527168274,0.2188306748867035,0.30703818798065186,0.15231715142726898,-0.17443010210990906,-0.01834120415151119,-0.04893602058291435,-0.17317020893096924,-0.01461214758455753,0.05199608206748962,-0.14167894423007965,0.06367141008377075,-0.20484541356563568,-0.269590824842453,-0.20919913053512573,-0.20702412724494934,-0.16182000935077667,0.05150778964161873,-0.22344689071178436,-0.17410290241241455,-0.1362045556306839,-0.22459949553012848,-0.03314512968063354,-0.15271598100662231,-0.1399105340242386,0.05856252089142799,-0.06258834153413773,-0.25086885690689087,0.18190979957580566,0.13655546307563782,0.07674883306026459,-0.11377385258674622,-0.04630910977721214,0.03100968897342682,0.02613714523613453,-0.144081711769104,-0.15339542925357819,-0.13097916543483734,0.04876139014959335,0.07425810396671295,-0.03787479177117348,-0.10866524279117584,-0.2094385176897049,-0.15841059386730194,-0.07904738932847977,0.1438492238521576,-0.25314605236053467,-0.21287858486175537,-0.09199511259794235,-0.06729847937822342,-0.06770920008420944,0.02134908363223076,-0.11767540872097015,0.05432251468300819,-0.07042790949344635,0.06352335214614868,0.4206203818321228,-0.05239452794194221,0.00453722849488258,0.10083799064159393,0.0545949749648571,-0.06953976303339005,-0.04209696874022484,0.00537587143480778,-0.1085483580827713,-0.17114509642124176,-0.00331830210052431,0.16507358849048615,0.07619666308164597,-0.08442465215921402,-0.009098831564188,-0.02303747646510601,-0.17071504890918732,0.09414701908826828,-0.17895616590976715,-0.15370255708694458,-0.13344943523406982,-0.04646429046988487,0.0802365392446518,0.0426144041121006,-0.06920624524354935,-0.12995989620685577,-0.09829236567020416,0.2702009975910187,0.26025810837745667,-0.02060550078749657,0.1302819550037384,0.00303855049423873,0.03148026764392853,-0.00688462425023317,-0.22321201860904694,-0.15319502353668213,-0.17256022989749908,0.04485095292329788,0.25820010900497437,0.19400858879089355,-0.04584047198295593,-0.03891319409012794,-0.14441177248954773,-0.2274729460477829,-0.09134498983621597,0.13184428215026855,-0.07722252607345581,-0.2294774055480957,-0.1810610443353653,-0.03424632549285889,-0.02679093740880489,-0.1502021849155426,-0.1692323535680771,-0.14333438873291016,0.02179565466940403,0.24734754860401154,0.2331387847661972,0.05872948095202446,-0.16264136135578156,0.00326608587056398,0.11963969469070435,-0.01079165004193783,0.19983814656734467,0.02190523780882359,-0.23434045910835266,0.02858159318566322,0.17040669918060303,0.06106771528720856,0.05604450032114983,0.1622980535030365,-0.10573367029428482,-0.20047040283679962,-0.17313069105148315,0.10282894968986511,-0.05849436298012733,-0.1426936537027359,-0.11913677304983139,0.04634192958474159,0.07429281622171402,-0.11222874373197556,-0.2157227247953415,-0.14245015382766724,0.1779680699110031,0.13762623071670532,0.266085684299469,0.03137950226664543,0.04325506836175919,0.04764384776353836,0.09838932752609253,0.07741992920637131,0.1460811346769333,-0.06119803711771965,0.01313191186636686,0.10767143219709396,0.22497878968715668,0.10275887697935104,0.06024333834648132,0.12618550658226013,-0.12410880625247955,0.0149967223405838,-0.22070404887199402,0.01720049418509007,0.2229233682155609,-0.08019334077835083,-0.0063898884691298,0.03652399405837059,-0.00954178161919117,-0.15756818652153015,-0.3529461920261383,-0.20665954053401947,0.2342185229063034,-0.11953992396593094,0.2760659456253052,0.06428065896034241,0.14027774333953857,-0.03919394314289093,-0.09728558361530304,-0.06476794928312302,-0.06945793330669403,-0.12127401679754257,-0.07577434927225113,0.03742378950119019,-0.08282630890607834,0.04463735595345497,0.20001688599586487,0.06660551577806473,-0.08016948401927948,-0.20217320322990417,-0.24139735102653503,-0.00236545270308852,0.06568245589733124,-0.111830934882164,0.0357988253235817,0.12091387808322906,0.0512956827878952,-0.17324523627758026,-0.35969436168670654,-0.24922963976860046,0.06811955571174622,-0.1972377449274063,-0.09010926634073257,0.01188742928206921,0.01725341007113457,0.04329466819763184,0.09818214923143387,-0.06298545002937317,0.17661678791046143,-0.04506189003586769,0.06672696024179459,-0.07285948842763901,0.1442897766828537,0.21109053492546082,0.12628065049648285,-0.31198516488075256,0.08566619455814362,-0.3155968487262726,-0.16853228211402893,-0.02693440020084381,0.06625467538833618,-0.00542924832552671,0.02795485407114029,-0.02144054509699345,-0.07206891477108002,-0.318919837474823,-0.1388826072216034,0.1360529512166977,-0.14194127917289734,0.00428449595347047,0.2407854050397873,-0.07577375322580338,0.01141704618930817,-0.04381502047181129,0.02936304546892643,0.24156704545021057,0.3567819595336914,0.09802129119634628,0.08639132231473923,0.16665688157081604,-0.0280317310243845,0.12775927782058716,0.24487623572349548,-0.22176828980445862,0.21460458636283875,0.06247866153717041,-0.23729920387268066,-0.14150072634220123,-0.01473790965974331,-0.03374564647674561,-0.07712072134017944,-0.07058320194482803,-0.1471967250108719,-0.2621411979198456,-0.2184656262397766,0.0253477655351162,0.19770723581314087,0.16891933977603912,0.23190836608409882,-0.00913285464048386,-0.30271846055984497,-0.02054647170007229,0.11529196053743362,0.10485509037971497,0.34166058897972107,0.247874453663826,0.01485418248921633,-0.07392759621143341,-0.26327118277549744,0.16890719532966614,0.3496171534061432,0.10467901825904846,0.1572972983121872,-0.11842558532953262,-0.1491984874010086,-0.11184142529964447,-0.07547333091497421,-0.10665047913789749,-0.02894782088696957,-0.0575324222445488,0.01323323789983988,0.0412711538374424,-0.00580834085121751,0.00472953077405691,0.26740312576293945,0.46826794743537903,0.5323356986045837,0.34730497002601624,0.6802471876144409,0.6288757920265198,0.2173861265182495,0.43102312088012695,0.5553330183029175,0.21780925989151,0.3603363037109375,0.4243758022785187,0.4172874987125397,0.7894208431243896,0.7691541910171509,0.5431382060050964,0.14647532999515533,0.00853920821100473,-0.0476372241973877,-0.02145234495401382,-0.08228709548711777,-0.02622701227664948,0.02443569712340832,-0.02921138517558575,-0.00595895806327462,-0.05076118186116219,-0.03041207231581211,0.05889841914176941,0.2700073719024658,0.16702648997306824,-0.1339612901210785,-0.15224555134773254,0.43316754698753357,0.3401942849159241,-0.10283426940441132,-0.04842589423060417,0.14980505406856537,-0.24712254106998444,0.4019387662410736,0.6615380048751831,0.19526301324367523,0.2698152959346771,0.3308951258659363,0.28836554288864136,0.03948789462447166,-0.04771706089377403,-0.09085972607135773,-0.09739170223474503,-0.04095735028386116,-0.05695232003927231,-0.01347804442048073,-0.00704265525564551,-0.06937503814697266,-0.03213568031787872,-0.02315323054790497,-0.09100588411092758,-0.1342982053756714,-0.31047531962394714,-0.30185338854789734,-0.2569703459739685,0.10698975622653961,0.07551580667495728,-0.09705605357885361,-0.1959264725446701,0.06602950394153595,-0.09745446592569351,0.17470717430114746,0.12935762107372284,0.03521007299423218,0.00801042094826698,-0.07284101843833923,0.02047538012266159,-0.23375274240970612,-0.1863476037979126,-0.09298429638147354,-0.09620700031518936,-0.02527691796422005,-0.02905768528580666,-0.06934507191181183,-0.01927765645086765,-0.11716144531965256,-0.02356789447367191,-0.09891389310359955,-0.01548876892775297,-0.09965086728334427,-0.20275869965553284,-0.17722682654857635,-0.01140339393168688,0.23559319972991943,0.2027536928653717,0.09342636913061142,0.06781697273254395,0.17098797857761383,0.10577883571386337,0.05300360545516014,0.16702425479888916,0.1868695467710495,0.10048452019691467,-0.00718133617192507,0.01157495006918907,-0.07375368475914001,-0.13855239748954773,-0.1316954791545868,-0.05811851471662521,-0.13123689591884613,-0.02387941256165504,-0.00696785235777497,-0.04499673843383789,-0.05742275714874268,-0.04354796186089516,-0.07625949382781982,-0.0653153657913208,0.00522241741418839,-0.17151300609111786,-0.17988313734531403,0.05179114267230034,0.05220350250601768,0.13176143169403076,0.22891683876514435,0.2325500100851059,0.2693188190460205,-0.02793964743614197,0.0639081746339798,-0.03079152666032314,0.0624227374792099,-0.00434170104563236,-0.01175549533218145,-0.05450106784701347,-0.12560568749904633,-0.27159467339515686,-0.1658489853143692,-0.1474618762731552,-0.04318530485033989,-0.04981942474842072,-0.01289719250053167,-0.04044860601425171,-0.01977349258959293,-0.09386591613292694,-0.0777297243475914,0.0657360628247261,0.05270697176456451,0.07086628675460815,-0.03869754448533058,0.2418118268251419,-0.07805372774600983,0.1838928908109665,0.25683462619781494,0.43974465131759644,0.46104228496551514,0.00964211579412222,0.16168831288814545,-0.06829377263784409,-0.04123180732131004,-0.0246359258890152,-0.06891831010580063,-0.04540820419788361,-0.02918023429811001,-0.14534102380275726,-0.174624502658844,-0.13255882263183594,-0.0964583083987236,-0.06967084109783173,-0.06993693858385086,-0.03121702559292316,0.08408064395189285,-0.12474057078361511,-0.0424235463142395,0.12206216901540756,0.0339975580573082,-0.01559655461460352,0.02675165794789791,0.2605471611022949,0.02925321646034718,0.21968024969100952,0.05213389545679092,0.32334834337234497,0.39412111043930054,0.16650116443634033,0.09409909695386887,3.9019825635478E-4,-0.22412152588367462,-0.07058408111333847,0.0140843465924263,-0.0932382270693779,-0.05318687483668327,-0.08255588263273239,-0.18537591397762299,-0.19247107207775116,-0.12140414118766785,0.01903768815100193,-0.04132551699876785,-0.03271669894456863,0.02690587379038334,-0.09167385846376419,-0.04782246425747871,0.06255022436380386,0.06881078332662582,0.05827569589018822,0.00652176095172763,0.1387004852294922,0.22679129242897034,0.17273618280887604,0.04557321965694427,0.43549731373786926,0.5615165829658508,0.3402976095676422,0.0645652636885643,0.08543167263269424,-0.13486702740192413,-0.08307813853025436,-0.007846649736166,-0.03916395083069801,0.02742219343781471,-0.0765061303973198,-0.14451004564762115,-0.13396748900413513,-0.04678456485271454,-0.05032600834965706,-0.06828626245260239,0.04294411838054657,-0.01300903968513012,0.01248291227966547,0.06787300854921341,0.12210667878389359,-0.01131696347147226,-0.00469807954505086,0.03175574168562889,0.18785402178764343,0.361928254365921,0.23620717227458954,0.15382030606269836,0.4834793508052826,0.3567342758178711,0.08766309916973114,-0.07294119894504547,0.13836464285850525,0.09678565710783005,-0.11163539439439774,-0.10112922638654709,-0.1214253231883049,0.08710081875324249,-0.0193971823900938,-0.10076743364334106,-0.13915802538394928,-0.07899045944213867,-0.07470400631427765,-0.00173796631861478,-0.04221282154321671,-0.00333427498117089,-0.05152043700218201,0.13269542157649994,0.03077542595565319,-0.0069643622264266,-0.08391324430704117,0.02064421400427818,0.10951006412506104,0.3988914489746094,0.04890313744544983,0.09847018867731094,0.37780705094337463,0.17363706231117249,0.1927575170993805,-0.16215981543064117,0.1492588073015213,0.06216859444975853,-0.03556916862726212,-0.1775740683078766,-0.12231501936912537,-0.03210853785276413,-0.01415968500077724,-0.12224090099334717,-0.0857422947883606,-0.04735345393419266,-0.01651322282850742,-0.06264426559209824,0.05610567703843117,-0.01610946841537952,-0.01761345565319061,0.1486767828464508,0.1396414190530777,0.07123309373855591,0.08447493612766266,0.12163209170103073,0.04049323871731758,0.13277514278888702,0.04793332889676094,0.04020391032099724,0.2995181381702423,0.07058776170015335,0.1971876323223114,-0.00750172417610884,0.02748578786849976,-0.0231220331043005,-0.06233827397227287,-0.09677659720182419,-0.26807132363319397,-0.07969685643911362,-0.01495236158370972,-0.1166004166007042,-0.15097390115261078,-0.10043024271726608,-0.12436780333518982,0.03952361643314362,0.01297367922961712,-0.00479225441813469,0.03271149098873138,0.15241602063179016,0.07487867027521133,0.015280457213521,0.01980751752853394,0.1300276219844818,-0.07878094166517258,-0.07105915248394012,-0.1263725310564041,-0.04698525369167328,0.04411522671580315,-0.12055714428424835,0.01835852861404419,0.10695359855890274,0.10059897601604462,-0.05378277599811554,-0.14003564417362213,-0.05549071729183197,-0.23882094025611877,-0.07630477100610733,-0.11049898713827133,-0.09243813157081604,-0.09828388690948486,-0.08812523633241653,-0.04765835404396057,-0.01339231058955193,-0.03061846643686295,0.04229184985160828,0.12759004533290863,0.22237183153629303,0.15154048800468445,0.15840022265911102,0.0118676470592618,0.10219883918762207,-0.02916273660957813,-0.02224217914044857,-0.00510167237371206,0.329820841550827,0.10434605181217194,-0.06987842917442322,0.2113904058933258,0.14968012273311615,0.03251352161169052,-0.1440051943063736,-0.1475394368171692,-0.05129885300993919,-0.16657130420207977,-0.06547017395496368,-0.02318579331040382,-0.11805164068937302,-0.078327976167202,-0.16464614868164062,0.00667680939659476,-6.4538605511189E-4,-0.00168852915521711,0.10040530562400818,0.10965153574943542,0.14532968401908875,0.06058355793356895,0.11977451294660568,0.12003627419471741,0.16557493805885315,-0.00605673156678677,0.15186955034732819,0.17334948480129242,0.27759963274002075,-0.02361255511641502,-0.08354221284389496,0.3043910562992096,0.19053921103477478,-0.02130651660263538,-0.303429514169693,-0.25402912497520447,-0.06015162542462349,-0.11279458552598953,0.05977270379662514,-0.07828260213136673,-0.12198317795991898,-0.02616750448942184,-0.0898599848151207,-0.0824522003531456,-0.04564973339438438,0.05475106090307236,0.01557266805320978,0.05429276823997498,0.0976640060544014,0.06069859117269516,0.0743604227900505,0.12098430097103119,0.05074823647737503,0.05402065068483353,0.0483047291636467,0.14228466153144836,0.3072352409362793,0.03660136461257935,-0.1604030579328537,0.32861876487731934,0.3199307322502136,0.043395034968853,-0.27061325311660767,-0.21480165421962738,-0.03966141864657402,-0.03872975707054138,-0.01963886804878712,-0.08619701117277145,-0.05908207222819328,-0.11510049551725388,-0.03934883698821068,-0.10483378171920776,-0.03351512923836708,7.3448987677693E-4,0.01372777856886387,0.01720918528735638,0.07483935356140137,0.0363495945930481,0.09370247274637222,0.07986339926719666,0.06687750667333603,-0.1299770623445511,0.03573571145534515,0.16772037744522095,0.36670446395874023,-0.23730331659317017,-0.3358227610588074,0.3271963596343994,0.297086626291275,-0.02742465771734715,-0.29669374227523804,-0.31122612953186035,-0.06573408842086792,-0.21079593896865845,-0.03769161179661751,-0.09450796991586685,0.01509818062186241,-0.0362878143787384,-0.12059164047241211,-0.03684156015515327,0.00281112501397729,-0.01199425756931305,0.02702786773443222,0.050201416015625,0.01848726905882359,0.05017415806651115,0.00499984342604876,-0.07812199741601944,0.08366560935974121,-0.1801275908946991,0.01802054420113564,0.17746417224407196,0.13175804913043976,-0.3195488154888153,-0.38586652278900146,0.3160725235939026,0.2033727616071701,-1.0465703962836E-4,-0.288088321685791,-0.24032068252563477,-0.05893907696008682,-0.24024395644664764,0.04745656624436378,-0.10048725455999374,-0.13090436160564423,-0.03445717319846153,0.01202757004648447,-0.08169455826282501,-0.03094199113547802,0.06273865699768066,-0.01104344055056572,0.01992235332727432,0.09721864759922028,-0.00172349950298667,0.16067323088645935,-0.02244556322693825,0.01602074690163136,-0.1635569930076599,0.08497200161218643,0.24477556347846985,0.1512121856212616,-0.4641183316707611,-0.6435148119926453,0.09814339876174927,0.13982272148132324,0.29920610785484314,-0.16477656364440918,-0.19566673040390015,-0.10514144599437714,-0.02320366725325584,0.10195206105709076,0.00530826393514872,-0.07398897409439087,-0.06103533133864403,-0.07113663107156754,-0.0073687587864697,-0.00668474473059177,0.05175938084721565,-0.01464700791984797,-0.02687586843967438,0.09472499787807465,0.04014617577195168,0.0815170407295227,0.0023063370026648,-0.1088942214846611,-0.20812629163265228,0.0471731498837471,0.17954175174236298,0.0582767054438591,-0.5543096661567688,-0.8170538544654846,0.04699492827057838,0.01598391681909561,0.20830391347408295,-0.08562691509723663,-0.02184798941016197,-0.07894361019134521,0.05720007047057152,0.00853073503822088,-0.04986162111163139,-0.0775776207447052,-0.03584645688533783,-0.01129933912307024,3.2511336030439E-4,0.06320742517709732,8.7748805526644E-4,0.01377933658659458,-0.05570578575134277,0.06760281324386597,-0.0286537017673254,-0.04085626825690269,0.08253199607133865,-0.09304024279117584,-0.10172956436872482,0.09703000634908676,0.12848737835884094,0.21660658717155457,-0.4647853374481201,-0.8197049498558044,-0.01869517751038074,0.1407446563243866,0.1391432285308838,0.1277603954076767,0.07705911248922348,-0.02592130750417709,-0.07760261744260788,0.03206478804349899,-0.09331924468278885,-0.0284056831151247,-0.06379431486129761,0.00651936046779156,0.00694584148004651,0.01679409667849541,0.02986310049891472,-0.02118096873164177,-0.03007561899721622,0.06803303956985474,0.0475689172744751,0.05145730823278427,-0.04840997233986855,-0.197343647480011,-0.01866377517580986,0.02203105390071869,-0.07093356549739838,0.22222089767456055,-0.40073689818382263,-0.7477818727493286,-0.00489511294290423,0.13853459060192108,0.08419636636972427,0.10785582661628723,0.1443312019109726,-0.01499261055141687,-0.13728764653205872,0.01555218733847141,-0.01530355401337147,0.05830579623579979,-0.08995996415615082,0.01005270425230265,-0.0187057089060545,0.1353476196527481,0.10780291259288788,-0.05686166137456894,0.07503031939268112,0.09365668892860413,0.0916147232055664,0.117836594581604,-0.01531645469367504,-0.16972334682941437,-0.09802538901567459,7.984911208041E-4,0.01606045663356781,0.1616862416267395,-0.36501869559288025,-0.8626018762588501,-0.00890698842704296,0.06756079196929932,0.1542564481496811,0.10545679926872253,0.11142265051603317,0.00782477762550116,-0.18071001768112183,0.04553621262311935,-0.01426248531788588,-0.07140906155109406,-0.03119769878685474,0.08704268932342529,0.03227006271481514,0.08602167665958405,-0.00243990146555007,0.08101877570152283,0.01302974484860897,0.05247252061963081,0.03838742896914482,0.11363658308982849,0.02648302167654037,-0.04583362117409706,-0.09472083300352097,0.0707925334572792,0.07117704302072525,0.19388888776302338,-0.29184046387672424,-0.8551555871963501,0.00306857540272176,0.08437281847000122,0.16239410638809204,0.23183171451091766,0.13912801444530487,-0.08112778514623642,0.01765493303537369,0.04513284936547279,-0.01741023175418377,-0.1492205262184143,-0.0715775340795517,0.04356434568762779,0.07612315565347672,0.02636784687638283,0.08978526294231415,0.08021843433380127,-0.01173325441777706,-0.0432579480111599,0.00782168749719858,0.17409752309322357,-0.01153321471065283,0.04340010136365891,-0.09829666465520859,-0.05957134440541267,0.06798423826694489,0.13112826645374298,-0.14234919846057892,-0.7101659178733826,0.01129157282412052,0.14736759662628174,0.09091400355100632,0.13036389648914337,0.10136646032333374,0.06787031888961792,-0.02222014963626862,0.03547423705458641,-0.00150439434219152,-0.01891213282942772,-0.01999020949006081,-0.02451590448617935,-0.01223888620734215,0.02742092683911324,0.04281347990036011,0.00980850402265787,0.03437008708715439,-0.07206279039382935,-0.00578599143773317,0.0196802094578743,-0.02011124603450298,-0.11099610477685928,-0.02441891096532345,0.03575513139367104,0.10101479291915894,0.24824784696102142,-0.03037815727293491,-0.6274595856666565,0.05535024031996727,0.1356433928012848,0.06462246924638748,0.03103742375969887,0.01819273829460144,-0.16650931537151337,-0.04892606660723686,-0.00569382775574923,0.02479508705437183,-0.05553456395864487,-0.01570833660662174,0.04581277817487717,-0.00721181090921164,-0.02118029072880745,0.04239336028695107,-0.01560891326516867,-0.00964836124330759,-0.03039145283401012,0.00733119808137417,0.05053678154945374,-0.02870830893516541,-0.07961376756429672,-0.04186198115348816,-0.0201245304197073,-0.02041317895054817,0.15166065096855164,-0.05192301422357559,-0.5832802057266235,0.2467329055070877,0.2122947722673416,0.06356729567050934,-0.15802186727523804,-0.02668337151408195,-0.14731700718402863,0.01232961937785149,7.9763011308387E-4,0.02626285329461098,-0.08323998004198074,-0.03762000054121017,0.0373162142932415,-0.00799467973411083,-0.02426107227802277,-0.06062285974621773,-0.00508656492456794,-0.00707039888948202,-0.08448018878698349,-0.01578926108777523,0.02955234237015247,0.10544130951166153,0.14227277040481567,0.09835317730903625,0.02277315221726894,-0.0602661557495594,0.1701638251543045,-0.02776030264794827,-0.4593866169452667,0.4730094373226166,0.18115848302841187,-0.03914970532059669,-0.20617465674877167,0.00655461894348264,0.03946085646748543,0.00544916652143002,0.04466894268989563,-1.0278203262715E-4,0.0247714351862669,0.00818831101059914,0.03470232710242271,0.02757808566093445,-0.01994985528290272,0.06754838675260544,5.50691584067E-5,-0.1196577176451683,-0.02310844883322716,-0.04593830928206444,0.06086800247430801,0.2304742932319641,0.28034648299217224,0.3630238473415375,0.32879719138145447,0.3195022642612457,0.16461947560310364,-1.0073590278625488,-1.2578175067901611,0.24801982939243317,0.24687057733535767,0.4789326786994934,0.4146590828895569,0.21443621814250946,0.10688959062099457,0.13148938119411469,0.11951057612895966,-0.04506015405058861,-0.07616912573575974,-0.10841528326272964,-0.00542293582111597,-0.04326378554105759,-0.0271835345774889,-0.00617349240928888,0.00682181539013982,0.0116330161690712,-0.09854646027088165,-0.20060615241527557,-0.3493174910545349,-0.15251366794109344,0.14278124272823334,-0.09825223684310913,0.29002824425697327,0.4040847718715668,-0.5351192951202393,0.08957106620073318,0.15942803025245667,-0.43010181188583374,-0.01063671987503767,0.3720470368862152,-0.04322629049420357,0.06785991787910461,-0.15109729766845703,-0.31128373742103577,-0.3093549907207489,-0.21194212138652802,-0.07728375494480133,-0.00158491695765406,0.00107621576171368,0.01753000356256962,-0.00296684401109815,0.00916194077581167,0.02387003600597382,-0.12047204375267029,-0.24062465131282806,-0.2946416735649109,-0.5859555006027222,-0.04400743544101715,-0.2874785363674164,0.43172717094421387,0.3539252281188965,0.12121687829494476,-0.135799840092659,0.2924884855747223,0.483542799949646,-0.00490168435499072,0.5653685331344604,0.501056432723999,0.37822243571281433,0.15516164898872375,-0.37984463572502136,-0.36580315232276917,-0.45016711950302124,-0.4362960159778595,-0.30789095163345337,-0.14876537024974823,-0.06315401196479797,0.0031731128692627,-0.03456958383321762,0.0026732983533293,-0.04228968545794487,-0.2096932828426361,-0.2389431893825531,-0.1306931972503662,0.34806227684020996,0.19629350304603577,-0.08740615099668503,0.30690211057662964,-0.06481551378965378,-0.2239871770143509,0.24625276029109955,0.15685929358005524,0.17240223288536072,-0.09496625512838364,0.15303973853588104,-0.2070181667804718,0.3512269854545593,-0.1580098569393158,0.2280835509300232,0.04743967577815056,0.07091919332742691,-0.23946452140808105,-0.349933385848999,-0.2029324769973755,0.00549881067126989,0.03278225660324097,0.0151655962690711,-0.04023387655615807,-0.03296221420168877,-0.15897361934185028,0.2581852972507477,0.1271311193704605,0.3248146176338196,-0.16906854510307312,-0.1601417362689972,-0.04914845153689384,0.528481662273407,0.1170690581202507,0.27268218994140625,-0.06630080938339233,0.1199822798371315,-0.11142851412296295,-0.12986505031585693,0.31110692024230957,0.27354708313941956,-0.5662770867347717,-0.28170105814933777,-0.1265150010585785,0.29660332202911377,0.10093708336353302,-0.23110565543174744,-0.2949017584323883,-0.07634513825178146,-0.06534259766340256,-0.03290135413408279,-0.0094458581879735,-0.16603972017765045,-0.11365444958209991,0.29628831148147583,-0.0632711797952652,-0.00703769642859697,0.08864381164312363,-0.1989632546901703,0.2093629091978073,0.34167733788490295,-0.06590867787599564,-0.27066686749458313,-0.09719901531934738,0.04668043926358223,-0.35788342356681824,-0.4078742563724518,0.2508011758327484,0.3372184932231903,-0.145601287484169,0.01257847715169191,-0.02858420088887215,-0.13218604028224945,0.2506323456764221,0.06158997118473053,-0.381271630525589,-0.13260707259178162,0.01844274625182152,-0.02257347851991653,-0.12149382382631302,-0.1135207787156105,0.09325311332941055,0.1829020082950592,0.10578633844852448,0.09820606559515,0.18982014060020447,0.16404545307159424,0.06844110041856766,0.04859650880098343,0.1378420889377594,0.09918779879808426,-0.05903410539031029,-0.06287529319524765,-0.03964751213788986,-0.13533636927604675,0.15448853373527527,0.1921732872724533,0.14961057901382446,0.21730120480060577,0.13987481594085693,-0.06839151680469513,0.1903388351202011,0.02009079977869987,-0.33239325881004333,-0.2615851163864136,-0.02637437358498573,-0.00259429262951016,-0.14258116483688354,-0.15409396588802338,0.13071374595165253,0.22377237677574158,0.402353435754776,0.34547296166419983,0.3905273675918579,0.253175288438797,-0.03039133548736572,-0.17928385734558105,-0.1808367520570755,-0.13343636691570282,-0.09204936772584915,0.00889052264392376,0.2114504873752594,-0.04683766514062881,0.02869139984250069,-0.13758720457553864,-0.3256886899471283,0.23172138631343842,-0.10544407367706299,0.14426320791244507,0.18220074474811554,-0.00153097964357585,-0.1863732635974884,-0.2952563464641571,-0.03476220741868019,-0.09896566718816757,-0.16663312911987305,-0.07244288921356201,0.13394245505332947,0.17611293494701385,0.23066726326942444,0.418483167886734,0.44440096616744995,0.39351630210876465,-0.07681737095117569,0.07749047875404358,-0.25199514627456665,0.01756410859525204,-0.13004779815673828,0.11886470764875412,0.11132470518350601,-0.09070863574743271,-0.06485221534967422,-0.08972938358783722,-0.13659928739070892,0.1505546271800995,-0.00726713053882122,-0.00314940209500492,-0.00321803870610893,-0.14821188151836395,-0.3016210198402405,-0.3296648859977722,-0.10904540121555328,-0.06269549578428268,-0.13703817129135132,-0.03724263608455658,0.09875120222568512,0.28226304054260254,0.02127932757139206,-0.07374335080385208,0.23716528713703156,0.4855116009712219,0.14601190388202667,0.3334432542324066,-0.20432598888874054,0.02422431111335754,-0.07978145033121109,-0.0710555836558342,0.10411258041858673,0.06519004702568054,0.18232369422912598,-0.02244430780410767,0.0815901905298233,0.1888231337070465,-0.01121479738503695,-0.3290677070617676,0.04610266536474228,-0.1754806786775589,-0.10636869817972183,-0.22880683839321136,-0.06957882642745972,-0.12035401165485382,-0.10055498033761978,-0.00990477483719587,-0.00963395275175571,0.14586478471755981,0.24197901785373688,0.32934635877609253,0.34692054986953735,0.40496939420700073,0.32496780157089233,0.3773246109485626,0.39911195635795593,0.0406222902238369,-0.310574471950531,-0.23470517992973328,-0.36228615045547485,-0.05193541571497917,0.31009963154792786,0.23577235639095306,-0.15784315764904022,-0.12814509868621826,-0.04042205587029457,-0.24946491420269012,-0.17366647720336914,-0.09980637580156326,-0.08098290115594864,-0.1750185340642929,-0.08687436580657959,-0.12625013291835785,-0.12070170044898987,0.09917566925287247,0.05262559652328491,-0.05017116293311119,0.09462094306945801,0.15969954431056976,0.2646305561065674,0.2990601062774658,0.06178219988942146,0.22716686129570007,0.1268642395734787,-0.08306535333395004,0.04315796494483948,-0.09298877418041229,-0.18010027706623077,0.0821351557970047,-0.0252807792276144,0.03926385939121246,0.11028358340263367,-0.1292683482170105,0.03985996544361115,-0.032911766320467,-0.237390398979187,-0.11184441298246384,-0.02560840547084808,-0.11413253843784332,-0.05808908119797707,-0.07463891804218292,-0.1135304644703865,0.02005899325013161,0.20389442145824432,0.05566578358411789,-0.06509307771921158,0.29030001163482666,0.16370534896850586,0.13033339381217957,0.2710353136062622,0.4131782054901123,-0.08782164752483368,-0.04132781177759171,0.07259735465049744,-0.18282237648963928,-0.20398440957069397,0.17789185047149658,0.07824964821338654,-0.05279046297073364,0.10343796014785767,0.21239325404167175,0.2375681847333908,0.17274212837219238,0.01181767974048853,-0.06175640970468521,-0.01633706316351891,-0.10896563529968262,-0.08094804733991623,-0.15695011615753174,-0.07344776391983032,0.03231651708483696,-0.03554545715451241,0.1348961591720581,-0.03592324629426003,0.2775520980358124,0.22506755590438843,0.03311422094702721,-0.05763492733240128,-0.06596613675355911,-0.1043078675866127,0.06098413094878197,-0.0941866859793663,0.00328767625615001,-0.3611958622932434,0.10416197031736374,-0.13551226258277893,-0.1886887103319168,-0.09406591951847076,-0.09054949879646301,0.0948559120297432,0.1471083015203476,-0.1726129651069641,-0.10437504947185516,-0.2639024555683136,-0.11539877206087112,-0.05463290587067604,-0.10391777008771896,-0.2315531224012375,0.10094437003135681,0.1525169461965561,0.00170642335433513,0.0495690256357193,0.3878021240234375,0.1327192187309265,0.16355887055397034,0.10282307863235474,-0.01316146925091743,0.21124137938022614,-0.0754033625125885,-0.2103649079799652,-0.2041601687669754,-0.3923886716365814,0.2937449812889099,0.04642239958047867,-0.17198285460472107,-0.15765288472175598,-0.236812561750412,0.09587244689464569,0.07273510098457336,-0.12883007526397705,-0.02982720546424389,-0.2662545144557953,-0.10910304635763168,-0.03714407235383987,-0.1413988322019577,-0.17716580629348755,0.1514168530702591,0.17252257466316223,0.07452408969402313,0.05908776074647903,0.2502446472644806,-0.03865362703800201,0.04762235656380653,-0.25758790969848633,-0.05164783447980881,0.0546775758266449,-0.00574102299287915,-0.02826333045959473,-0.1728837639093399,-0.1597408801317215,0.07728485763072968,0.05480347201228142,-0.1717487871646881,0.01189786475151777,-0.09980522096157074,0.0524018257856369,0.3074764311313629,-0.06802472472190857,0.03720913082361221,-0.17903321981430054,-0.03615208715200424,-0.09518564492464066,-0.11555352061986923,-0.21036945283412933,-0.01447328925132751,0.04995745792984962,0.03365502879023552,-0.05193478241562843,0.26407477259635925,0.10049305856227875,0.21494992077350616,-0.11256640404462814,-0.06037734821438789,0.12610389292240143,-0.0601002462208271,-0.05446089804172516,0.0038633206859231,-0.03957834467291832,0.01979232765734196,0.14021475613117218,-0.3119511306285858,-0.01475664507597685,-0.21619848906993866,0.04499600455164909,0.17814478278160095,0.05832866579294205,0.11682817339897156,-0.05091104656457901,-0.0612567700445652,-0.10249629616737366,-0.12086859345436096,-0.1472945511341095,-0.10533414036035538,0.04566346108913422,-0.03732633590698242,0.11936132609844208,0.03060786053538322,-0.02518629282712936,0.02699266001582146,-0.00598217686638236,-0.15297463536262512,0.14064238965511322,0.05924692377448082,0.08568352460861206,0.03334701433777809,0.08120249956846237,-0.06650905311107635,-0.03861916437745094,-0.05184426158666611,-0.15769805014133453,-0.00988372322171926,-0.03051322884857655,-0.03395570069551468,-0.09429597854614258,-0.11607731133699417,-0.0747530534863472,0.03410986810922623,-0.1382160186767578,0.00454463250935078,-0.10033142566680908,-0.16586869955062866,-0.07715526223182678,-0.11445728689432144,0.27529439330101013,-0.0536222942173481,-0.04025761783123016,0.04527295380830765,-0.01347781904041767,0.15917037427425385,-0.04760792478919029,0.08914673328399658,0.00897788628935814,0.15107479691505432,-0.2727878987789154,0.0898275226354599,-0.06869007647037506,0.0363437719643116,-0.3424893021583557,0.13302654027938843,0.07515522092580795,0.10388512909412384,-0.0388372540473938,-0.17214283347129822,-0.18553504347801208,0.09157294034957886,-0.02394016645848751,-0.113234743475914,-0.02762343361973763,0.00866478867828846,-0.06608878821134567,-0.19846872985363007,-0.02886270359158516,-1.2144031643402E-4,-0.01333919167518616,0.08661802113056183,0.01612884551286697,0.3701536953449249,0.0962669774889946,0.08942973613739014,0.07915981858968735,0.1238970011472702,-0.0786346048116684,-0.08123280853033066,-0.135639026761055,-0.10379677265882492,-0.237371563911438,0.01194916199892759,0.04751615226268768,0.02985444851219654,0.08243679255247116,-0.1488552987575531,-0.07356525212526321,0.1761629730463028,-0.07622981816530228,-0.04552529752254486,-0.15887460112571716,-0.03473431244492531,0.0239842850714922,-0.1345076858997345,-0.07211428135633469,-0.02886377088725567,0.00539572490379214,0.09968938678503036,0.19308379292488098,0.05062549561262131,-0.13684679567813873,-0.07397019118070602,-0.04422401264309883,0.14261506497859955,-0.04821012541651726,-0.06192734837532043,-0.2940925657749176,0.05910315737128258,-0.3581691384315491,-0.2896623909473419,0.11250192672014236,0.07708463072776794,0.23647348582744598,-0.0447356328368187,-0.21401698887348175,0.04657140001654625,0.00760611798614264,0.02086101099848747,0.03207971155643463,0.01555487234145403,-0.06963813304901123,-0.10490059107542038,-0.09589730948209763,-0.02427625469863415,-0.0664948895573616,-0.03992344439029694,-0.01683842204511166,-0.11165320873260498,-0.07146304845809937,0.02620158344507217,0.10834675282239914,0.2187272012233734,0.02649909257888794,-0.01795464195311069,-0.107980877161026,0.05919783189892769,-0.15102526545524597,-0.03717343881726265,-0.04286351054906845,0.110707588493824,0.06035728007555008,-0.19239386916160583,-0.1345140039920807,0.00598248746246099,0.03506290912628174,-0.13816887140274048,0.07800579816102982,-0.08236725628376007,-0.00536507181823254,0.132778137922287,-0.03227043896913528,0.02056051976978779,-0.3418688476085663,-0.187813863158226,-0.10563790798187256,0.11366557329893112,0.14179646968841553,0.04817730560898781,0.20240190625190735,0.21282747387886047,0.11629407852888107,0.11408007144927979,0.07557935267686844,0.19261246919631958,-0.02831856347620487,-0.01493312232196331,-0.06126920133829117,0.25467219948768616,0.08469685167074203,-0.06328508257865906,-0.12304088473320007,-0.05213040113449097,0.01219611242413521,-0.09782422333955765,0.06807015836238861,-0.03984154388308525,-0.05383683741092682,0.15280044078826904,0.06030506268143654,0.11545690894126892,-0.06463903188705444,-0.2590112090110779,0.06855080276727676,-0.0751282200217247,0.05638384819030762,0.17692245543003082,0.1970486044883728,0.11990077793598175,0.13154302537441254,0.1233721598982811,-0.07052915543317795,-0.00691393297165632,-0.06682997941970825,0.07391410320997238,-0.05031215772032738,0.11908122152090073,0.19386595487594604,-0.01394928060472012,-0.14179125428199768,-0.02314682304859161,-0.03248240426182747,-0.07051544636487961,-0.09083306789398193,-0.11939414590597153,0.15671806037425995,0.10676722973585129,0.03538358211517334,0.01795710995793343,0.06046805158257484,-0.40720081329345703,0.09461396932601929,0.0598214827477932,0.21305282413959503,-0.02838791161775589,0.10319600999355316,0.20666036009788513,0.0352422334253788,0.09853663295507431,-0.08494210243225098,0.21116411685943604,-0.10113606601953506,-0.21283741295337677,0.2232954204082489,0.11959362775087357,0.00144742068368942,-0.06587335467338562,-0.1494855284690857,-0.01855362765491009,-0.02235826104879379,-0.00274687353521585,-0.0690809115767479,-0.13045649230480194,-0.01587340235710144,0.21518957614898682,-0.0713316798210144,-0.12695549428462982,-0.11792414635419846,-0.368075430393219,0.31500640511512756,-0.05029609799385071,0.04313123598694801,-0.01312694977968931,0.01708599552512169,0.0866018533706665,0.06094344332814217,0.161137193441391,-0.04069124162197113,0.0520792193710804,-0.05625848472118378,0.02252928540110588,0.14625489711761475,-0.00740861147642136,-0.01059382874518633,0.1126527339220047,-0.1591518223285675,-0.01169743668287992,0.01401628833264112,-0.05799797922372818,-0.07213689386844635,-0.06697749346494675,-0.1008189469575882,-0.14091214537620544,0.02687229588627815,-0.00259173102676868,-0.0713956356048584,0.2505727708339691,0.41996699571609497,-0.14048561453819275,0.02851373329758644,-0.03977222740650177,-0.2658986449241638,0.14028693735599518,-0.05463020876049995,0.11644444614648819,-0.02095727995038033,0.28152787685394287,-0.00887627247720957,0.07470005750656128,-0.04981258884072304,-0.03987544402480125,0.3204568922519684,0.06395149976015091,-0.07631492614746094,0.08079265803098679,0.14741428196430206,0.11325670033693314,7.932238804642E-5,-0.07340799272060394,-0.4623667001724243,-0.3622269034385681,0.41654011607170105,0.05259188637137413,-0.17593979835510254,0.1540483981370926,0.32933810353279114,-0.4354999363422394,-0.4012739360332489,-0.17658831179141998,-0.27396494150161743,0.13253340125083923,-0.18005530536174774,-0.07226786017417908,-0.04651455953717232,0.315216064453125,0.34619805216789246,-0.08246193081140518,0.07804220914840698,0.3095511198043823,0.11932270973920822,-0.24353373050689697,0.04734192788600922,0.05836136639118195,0.06312767416238785,-0.08506343513727188,0.04460859298706055,0.1083814799785614,0.2540985643863678,0.1745195835828781,0.07792282849550247,0.28047680854797363,-0.1259491890668869,-0.2109028697013855,-0.11877013742923737,-0.16858398914337158,-0.2552545368671417,-0.13171231746673584,-0.3696289658546448,-0.25809046626091003,-0.2579461932182312,-0.17514675855636597,-0.08333604782819748,0.4053262174129486,0.33332300186157227,0.5252587199211121,0.8772903680801392,0.26830363273620605,0.25478923320770264,0.3947391211986542,0.3025834262371063,0.07504154741764069,0.06893137097358704,0.00537591660395265,0.04178734868764877,0.0097196027636528,-0.07052920013666153,0.02161096781492233,0.18734589219093323,0.30997979640960693,0.2825736999511719,-0.1864524632692337,-0.07685458660125732,0.3503912389278412,0.2352285236120224,0.22778059542179108,-0.3900678753852844,-0.8045223355293274,0.1381639689207077,0.44839927554130554,0.6818845272064209,-0.0311125423759222,-0.5049211382865906,-0.05104612186551094,0.3594360947608948,0.13850374519824982,0.02410482056438923,-0.02611866779625416,0.03310925886034966,0.06154973432421684,0.00509833917021751,0.00675041088834405,0.03968551754951477,-0.01599367894232273,0.0447666347026825,0.03480548039078712,0.22541990876197815,0.38246819376945496,-0.24276041984558105,0.01013883389532566,0.7329345345497131,0.0815681666135788,-0.02043949812650681,0.3802914619445801,0.259945809841156,0.3705078661441803,-0.23399725556373596,-0.2746748626232147,-0.29169726371765137,0.2563467025756836,0.07279197126626968,-0.4099765121936798,0.07413981854915619,0.26786893606185913,0.1381933093070984,-0.06803854554891586,-0.00191441876813769,0.06816234439611435,-0.01878784969449043,0.02100571244955063,0.02408179081976414,0.00852363370358944,-0.027088463306427,0.05441310256719589,0.06486132740974426,-0.07588276267051697,-0.0230006892234087,0.32261916995048523,0.5798373222351074,-0.01638672687113285,0.16911299526691437,-0.3358585238456726,-0.06328199803829193,0.2076231986284256,-0.3991168439388275,-0.06257390230894089,0.14785297214984894,0.01182932499796152,0.09264189004898071,-0.00737978843972087,-0.12647093832492828,-0.266127347946167,-0.0115899508818984,0.10971569269895554,-0.0112377405166626,0.00357937114313245,-0.02062586508691311,-0.03103123977780342,0.01256033312529325,-0.09619342535734177,-0.04395806789398193,-0.08330897986888885,-0.01879503205418587,0.01966693066060543,0.4948824346065521,0.25679028034210205,-0.04983769729733467,-0.06249560788273811,0.28257936239242554,-0.14692963659763336,0.1094895526766777,0.2279711663722992,0.10551922768354416,0.12192785739898682,0.03140576928853989,-0.06063753366470337,-0.04072548076510429,-0.21912965178489685,-0.0430704802274704,-0.21206313371658325,-0.3177545666694641,-0.13542252779006958,-0.06811495125293732,-0.03371896222233772,0.04153915494680405,0.03530363738536835,-0.04234067723155022,-0.05671131238341331,-0.11643216758966446,-0.12805089354515076,0.00782756507396698,0.04704339057207108,0.37703463435173035,0.3831668496131897,-0.3561823070049286,0.30666783452033997,0.4380047917366028,-0.17595309019088745,-0.10076037794351578,-0.04806499555706978,0.18524493277072906,0.14910109341144562,0.40469613671302795,-0.06539107859134674,-0.07556230574846268,0.14583232998847961,0.00441094487905502,-0.18344326317310333,-0.20382153987884521,-0.18225719034671783,-0.01784548349678516,0.00950748380273581,-0.01273695565760136,0.01466140802949667,0.00402352353557944,-0.0949455052614212,-0.03645306080579758,-0.11955816298723221,0.16718542575836182,0.15070725977420807,0.28830334544181824,0.46957749128341675,0.10373491793870926,0.3873060345649719,0.060774777084589,0.02825849503278732,-0.2570461928844452,-0.2663763761520386,0.3237444758415222,-0.01006993185728788,0.05578853562474251,-0.00971238594502211,-0.199465811252594,-0.05336706712841988,-0.00665495824068785,0.03543292731046677,-0.2455107420682907,-0.2136344611644745,-0.07115357369184494,0.05967021360993385,0.03674394264817238,0.02951948344707489,-0.03079019673168659,-0.03336237743496895,-0.24016377329826355,-0.15750032663345337,-0.18827944993972778,0.11608864367008209,0.09287084639072418,0.04973879083991051,0.6026623845100403,0.5319229364395142,-0.08215516805648804,0.17502479255199432,-0.21610058844089508,-0.3665170967578888,-0.18689362704753876,0.07404287904500961,0.08927023410797119,0.1809353083372116,-0.0284789502620697,-0.03419831395149231,0.07342290878295898,-0.15046754479408264,-0.4204939305782318,-0.17923864722251892,-0.20285961031913757,-0.10698594897985458,0.00117678195238113,-0.03548973798751831,0.01393752917647362,-0.04702120646834373,-0.2265229970216751,-0.25768399238586426,-0.11520429700613022,0.15047186613082886,-0.09263870865106583,-0.21412722766399384,0.4569271504878998,0.27866289019584656,0.20328566431999207,0.297490656375885,0.20527733862400055,-0.23070164024829865,0.13081000745296478,0.18894504010677338,0.00519960513338447,0.14358878135681152,0.03669193387031555,0.12631502747535706,0.0837676152586937,0.03269065916538239,-0.4993637502193451,-0.31637105345726013,-0.17946018278598785,-0.08498622477054596,0.03087710775434971,0.00215755915269256,0.02583296224474907,-0.10607051849365234,-0.32144227623939514,-0.20288121700286865,0.01645064167678356,0.15460963547229767,-0.14188218116760254,-0.257019579410553,0.20796871185302734,-0.13096679747104645,0.2658545970916748,0.1863652467727661,0.25788503885269165,-0.12776173651218414,-0.06713417172431946,-0.02632436901330948,-0.31667184829711914,-0.13123105466365814,-0.05984396114945412,0.09510854631662369,0.27119147777557373,0.16802318394184113,-0.3838377594947815,-0.468498170375824,-0.16958387196063995,-0.04330402612686157,0.01598424650728703,0.0134755652397871,-0.0349375493824482,-0.01910738460719585,-0.1428660899400711,-0.2315763682126999,-0.00536309089511633,0.2933345139026642,-0.12054425477981567,-0.05624137073755264,-0.2828243374824524,-0.2797309160232544,0.24052973091602325,0.4569954574108124,0.1611260622739792,-0.03814982622861862,-0.02359817922115326,-0.01924768090248108,-0.3020758032798767,-0.6359201073646545,-0.11209235340356827,0.09083112329244614,0.214567631483078,0.20398543775081635,-0.30923202633857727,-0.2859456241130829,-0.16552741825580597,-0.04527349025011063,0.03299277275800705,5.3112115710974E-4,-0.02726253680884838,-0.03555188328027725,0.02091869153082371,-0.1054268628358841,0.00727873062714934,0.15940403938293457,0.23908039927482605,-0.04949796199798584,-0.3332533836364746,0.00637606764212251,0.39060014486312866,0.15179188549518585,0.04456493631005287,-0.00835517607629299,0.16753752529621124,-0.11719126999378204,-0.1717434674501419,-0.6172645688056946,-0.34099629521369934,-0.15750862658023834,0.02276577427983284,0.07214118540287018,-0.344291090965271,-0.18032214045524597,-0.05818901211023331,-0.09989641606807709,-0.02934317104518414,-0.01796354167163372,-0.0202664453536272,0.05748619139194489,0.13614234328269958,0.06300294399261475,-0.01314883306622505,0.05014739185571671,0.20442047715187073,-0.06555438041687012,-0.5000723004341125,0.11021250486373901,0.4086551368236542,0.13232816755771637,-0.00708543974906206,0.19929784536361694,-0.02442760206758976,-0.09688238799571991,-0.0952475443482399,-0.43772318959236145,-0.3429502248764038,0.04939838126301765,0.03335325047373772,-0.1255311220884323,-0.3848994970321655,0.01964532770216465,-0.01836410909891129,-0.1683419793844223,-0.03537877649068832,-0.01484005246311426,-0.04874646291136742,0.1613202840089798,0.11947491019964218,-0.03703342378139496,-0.02890267409384251,0.0584135539829731,0.26143667101860046,-0.10047094523906708,-0.22768352925777435,-0.00153842754662037,0.33843961358070374,0.2575356662273407,0.05786734074354172,0.17431727051734924,-0.00305912247858942,-0.15203790366649628,0.07743754237890244,-0.12756164371967316,-0.28961706161499023,-0.02136775478720665,0.2715992033481598,-0.02261694706976414,-0.15950098633766174,-0.0716850608587265,0.03742035105824471,-0.14371520280838013,-0.03504283726215363,-0.01357743702828884,0.05115978792309761,0.18529343605041504,0.21374677121639252,0.05000351369380951,-0.07417665421962738,0.07515121251344681,0.14341433346271515,-0.11669249087572098,-0.07679096609354019,-0.02765334583818913,-0.05331633985042572,0.02112990990281105,0.2511928975582123,0.08605939894914627,-0.02486166730523109,-0.17822137475013733,-0.10343535989522934,0.00881699845194817,0.04283475875854492,0.09246452152729034,0.2942918837070465,-0.0098157599568367,-0.10691467672586441,0.00809638202190399,0.1718977689743042,-0.1435021609067917,-0.04726710170507431,-0.00991217978298664,0.10041163116693497,0.09706246852874756,0.16196417808532715,0.05690785124897957,-0.02689584903419018,0.03159621730446815,-0.1180151104927063,0.01947664469480515,-0.08236745744943619,-0.01054040994495153,-0.09142521768808365,0.15976698696613312,-0.05173463001847267,0.06485272198915482,-0.13169726729393005,-0.10889856517314911,-0.16937758028507233,0.07208564132452011,-0.0803457647562027,0.01073657721281052,0.08798179030418396,-0.13555023074150085,0.014948227442801,-0.0918537899851799,0.15094435214996338,0.022842762991786,0.04959701746702194,0.01863590814173222,0.09003030508756638,0.08887327462434769,0.00352802313864231,-0.10452252626419067,-0.22332070767879486,-0.15380139648914337,-0.23736310005187988,0.03814747929573059,0.0017394341994077,0.20239461958408356,0.00101738993544132,0.2549417316913605,0.43804118037223816,-0.04248420149087906,-0.01610835269093513,-0.05757725611329079,-0.03124934807419777,-0.06449627131223679,-0.02219710499048233,-0.01281819306313992,-0.06597493588924408,-0.21605715155601501,-0.1100388616323471,-0.12201282382011414,-0.00503208488225937,0.03210717439651489,-0.05470814555883408,-0.0646798312664032,0.07707042247056961,0.11307074129581451,-0.07968947291374207,-0.11382131278514862,-0.22010506689548492,-0.26916104555130005,-0.17667149007320404,0.03215452283620834,0.12418875843286514,0.08044039458036423,0.05367479473352432,0.07769468426704407,0.24551360309123993,-0.00459277955815196,-0.20258189737796783,0.08694674074649811,-0.10400812327861786,-0.11152943223714828,0.00175428437069058,-0.04475226253271103,0.04447391256690025,-0.14218126237392426,0.00987646542489529,-0.01029438618570566,-0.01673382893204689,0.01052392274141312,0.00516498321667314,0.03337638080120087,-0.00991795770823956,0.05587689206004143,0.08159955590963364,-0.12338004261255264,-0.04130840301513672,-0.2527557909488678,0.01806722022593021,-0.02376348711550236,0.10651015490293503,0.1295841634273529,-0.10675587505102158,0.06143245473504066,0.14842917025089264,0.1523280143737793,0.07987276464700699,-0.07854155451059341,-0.06373444944620132,-0.02418006211519241,0.07358402013778687,0.04546088725328445,0.00906867440789938,-0.10577560216188431,-0.02527543716132641,-0.00594569323584437,-0.02738799713551998,-0.06231702119112015,0.02812068536877632,-0.07979067414999008,-0.07343344390392303,-7.9406902659684E-4,-0.04835733398795128,0.0909043550491333,0.1670532524585724,0.00992430653423071,0.15317842364311218,-0.02492727898061275,-0.0639437660574913,-0.02619661763310432,-0.17898698151111603,0.00508110737428069,0.22217725217342377,0.23343917727470398,-0.06550302356481552,-0.05847444012761116,-0.15894486010074615,0.17094789445400238,0.02917106449604034,0.19115722179412842,0.22471314668655396,0.00520301936194301,0.06222471594810486,0.09660526365041733,-0.03961613029241562,-0.04957203939557076,-0.08826419711112976,0.00507685402408242,-0.06715026497840881,-0.02427313290536404,0.04720233753323555,0.2770725190639496,0.24787640571594238,0.07727257162332535,0.2370947003364563,-0.04206488281488419,-0.06930035352706909,-0.24157088994979858,0.00798619445413351,0.05563821271061897,0.18696939945220947,0.14127756655216217,-0.05428863316774368,-0.22165589034557343,0.06220890209078789,-0.11811070889234543,0.04466473311185837,0.03701413050293922,-0.11016935110092163,0.01048282254487276,-0.02882645837962627,0.03428924456238747,-0.08855468779802322,-0.08546820282936096,-0.1261000782251358,-0.05355804413557053,-0.06292106956243515,-0.05041157081723213,0.07457686960697174,0.05070306733250618,0.163630411028862,0.08726140111684799,0.28976425528526306,-0.15029820799827576,0.04847957938909531,0.12575894594192505,0.04698849096894264,-0.0993504598736763,0.04774684086441994,-0.09350182116031647,-0.02262395434081554,0.05669135227799416,0.1250941902399063,-0.09590316563844681,-0.11754783987998962,-0.32034599781036377,-0.24297380447387695,0.07371757924556732,-0.2785510718822479,-0.01736926473677158,-0.01225404441356659,-0.09843718260526657,-0.03669701889157295,0.00687850546091795,0.05755424126982689,-0.13016855716705322,-0.07654935121536255,-0.09196632355451584,-0.12197932600975037,-0.2699020802974701,-0.06249333173036575,-0.05691000819206238,0.01648036390542984,0.10750199854373932,-0.08782012015581131,-0.10546664893627167,5.5051158415154E-4,0.1199793815612793,-0.217429980635643,-0.11397703737020493,0.095244400203228,0.01450518704950809,-0.08631201833486557,-0.3410757780075073,-0.2582607567310333,-0.23002807796001434,-0.2166992574930191,-0.06651393324136734,0.06560279428958893,-0.08052948117256165,-0.04440886154770851,-0.01623786985874176,-0.050991240888834,-0.11954199522733688,-0.12628014385700226,-0.29128536581993103,-0.12316593527793884,-0.09155138581991196,-0.36947375535964966,-0.10476496815681458,0.1431926190853119,0.07351938635110855,0.08151128888130188,-0.04836571589112282,-0.02157456241548061,0.1617712825536728,-0.07922153174877167,-0.12242182344198227,0.11870532482862473,0.17886359989643097,-0.11420770734548569,-0.23031528294086456,-0.13500268757343292,-0.18077440559864044,-0.3762117326259613,-0.07639174163341522,0.03278260678052902,-0.06209371984004974,0.01773072592914104,0.01839584857225418,-0.09252369403839111,-0.1570255011320114,-0.04250846058130264,-0.08937358856201172,-0.06668422371149063,-0.067812480032444,-0.5253761410713196,-0.16136932373046875,0.2837536334991455,0.01766633801162243,0.18842369318008423,0.00110682286322117,0.04608785361051559,0.07991169393062592,0.08858758956193924,0.07592561095952988,0.11150363087654114,0.10000237822532654,0.10909438878297806,-0.12816135585308075,-0.14235062897205353,-0.1097368448972702,-0.33429744839668274,0.02412378042936325,0.06844746321439743,-0.00622697081416845,0.05741863325238228,0.0549650527536869,-0.14594389498233795,-0.12877096235752106,-0.09376510977745056,-0.04828651249408722,0.0346432700753212,-0.13196155428886414,-0.18049632012844086,-0.02966309897601604,0.17323589324951172,0.1325758695602417,0.1146731898188591,-0.07941075414419174,0.02896206267178059,0.31584811210632324,0.09013054519891739,0.01317629218101501,0.11238858848810196,0.1860935240983963,0.15343137085437775,-0.06828010827302933,-0.21099698543548584,0.11604081094264984,-0.2635093629360199,0.01821359246969223,0.0371735617518425,-0.0385948047041893,0.03701993823051453,-0.01483782380819321,-0.13860160112380981,-0.00525256572291255,-0.11135268956422806,0.03357645124197006,0.11798672378063202,0.02106505632400513,0.04378455504775047,-0.04655234143137932,-0.25609177350997925,0.24300315976142883,0.26758521795272827,0.07473599165678024,0.2833893299102783,0.31930097937583923,0.06077589467167854,0.3267679810523987,0.2050522118806839,0.03578329458832741,-0.04372899234294891,0.08375957608222961,0.0732709988951683,0.37254536151885986,-0.02461712434887886,0.19234496355056763,0.20330555737018585,0.01554578449577093,0.02164453454315662,0.02006859146058559,-0.00344651681371033,-0.06337802112102509,-0.06759737432003021,0.02930228970944881,-0.1087368056178093,0.1570686548948288,0.24319656193256378,0.11064016819000244,-0.28021514415740967,0.12065603584051132,0.48453715443611145,0.04115720093250275,0.05271801725029945,0.25073936581611633,-0.0821014866232872,0.23438335955142975,0.13128919899463654,0.1486198604106903,-0.08843639492988586,0.4397895038127899,0.3911201059818268,0.20933042466640472,-0.06606648117303848,0.04115360602736473,0.07241610437631607,0.0707421824336052,0.07628291100263596,0.05199635773897171,0.04880085214972496,0.01837204582989216,-0.11153437197208405,-0.13179442286491394,-0.3209655284881592,-0.5279930830001831,-0.14529436826705933,-0.07853583246469498,0.15770217776298523,0.33407607674598694,-0.20355071127414703,-0.46945497393608093,0.30729421973228455,0.28864583373069763,-0.11046711355447769,0.17884832620620728,0.18038755655288696,0.11986919492483139,-0.14797519147396088,-0.17970561981201172,-0.5931115746498108,-0.6359431147575378,-0.34560179710388184,-0.1748683601617813,-0.03549450635910034,0.01370905991643667,-0.00111826241482049,0.0918138399720192,0.0419493168592453,0.09798626601696014,0.08405881375074387,0.12854646146297455,0.09528210014104843,0.03267346322536469,-0.10074508190155029,-0.22890469431877136,-0.42625367641448975,-0.661645770072937,-0.18564356863498688,0.2975161075592041,0.7009275555610657,0.3852485418319702,0.39013540744781494,-0.13669627904891968,-0.33431312441825867,-0.5480896234512329,-0.34109678864479065,-0.19338679313659668,0.01273040007799864,0.09683895856142044,0.0933506041765213,0.03499738126993179,0.10668046772480011,0.12751661241054535,0.1244254857301712,0.1224173828959465,0.11356578767299652,0.03295620158314705,0.01847236603498459,0.09030250459909439,-0.07451029866933823,-0.00892129354178905,-0.02751043438911438,-0.06460260599851608,0.02173286303877831,0.21214425563812256,0.41262516379356384,0.07245038449764252,0.2951662540435791,0.5730463266372681,0.46007978916168213,0.21445442736148834,0.32698187232017517,-0.14157061278820038,-0.27384456992149353,-0.05261398479342461,-0.26150456070899963,-0.20038677752017975,-0.05062408000230789,0.03852139785885811,-0.00194803904742002,0.14080020785331726,0.04645455628633499,0.08861702680587769,0.14652249217033386,0.09556636959314346,-0.00853349454700947,-0.04974321275949478,-0.05703577026724815,-0.33503255248069763,-0.3399173319339752,0.01182389166206121,0.15748947858810425,0.01350293401628733,-0.18512693047523499,0.05416055023670197,0.2809953987598419,0.5127591490745544,0.6341543793678284,0.00323914829641581,-0.1746634542942047,0.05030945315957069,2.4009292246774E-4,-0.4339107275009155,-0.29846683144569397,-0.3171520531177521,-0.16516534984111786,-0.10650775581598282,0.05895641446113586,0.0731336921453476,0.18917976319789886,0.0550580695271492,0.16224397718906403,0.13405203819274902,0.02099380828440189,-0.02584366872906685,-0.1904454380273819,-0.411419153213501,-0.09605100005865097,-0.06282790005207062,0.17971830070018768,-0.07334296405315399,0.05983161181211472,-0.23467454314231873,0.4301316738128662,0.5773569941520691,0.4069914221763611,-0.05130186676979065,-0.27222540974617004,0.02837519161403179,-0.14322438836097717,0.040116798132658,-0.34471526741981506,-0.34835097193717957,-0.34510838985443115,-0.2223963737487793,0.0376160517334938,0.13380657136440277,0.08947722613811493,0.11527536064386368,0.11485572904348373,0.0510110892355442,-0.02397920377552509,-0.00923078320920467,0.0604691319167614,-0.3876553773880005,-0.10254958271980286,0.04197772592306137,0.04330771416425705,0.16635257005691528,0.19797402620315552,0.36896660923957825,0.24876001477241516,0.6323612332344055,0.11240026354789734,0.27968910336494446,-0.34833040833473206,-0.2942313253879547,0.21416686475276947,-0.1609485149383545,-0.38333064317703247,-0.23841917514801025,-0.4208173155784607,-0.2155366837978363,-0.03073807246983051,0.03265447542071342,0.06014182046055794,0.05705725774168968,0.0761076882481575,-0.03914754465222359,-0.09777813404798508,-0.0099030053243041,-0.05602721124887466,-0.3297290503978729,0.05088560283184052,-0.06383207440376282,0.19367572665214539,0.32333773374557495,0.3747425675392151,0.08564551919698715,0.4386034607887268,0.5392988324165344,0.03210357576608658,0.3927602171897888,-0.05145582184195518,-0.2696390450000763,-0.0134196886792779,-0.15108618140220642,-0.21188780665397644,-0.26156625151634216,-0.25037288665771484,-0.1790502518415451,-0.16076824069023132,0.03383278846740723,0.02721060439944267,0.19303973019123077,0.002656030934304,-0.01315725222229958,0.09837006777524948,0.21200285851955414,0.06865653395652771,-0.00889412686228752,0.14833933115005493,0.03869793564081192,0.09520626813173294,0.01604552194476128,0.44554978609085083,0.2214238941669464,0.16855424642562866,0.3529059588909149,-0.13670402765274048,0.02623456902801991,-0.14123104512691498,-0.09903308004140854,0.05920969694852829,0.03704060241580009,-0.02790546603500843,-0.3121258318424225,0.02511199563741684,-0.0791131854057312,-0.17137902975082397,-0.04878880828619003,0.07386904954910278,0.00509592983871698,-0.07998939603567123,-0.07496311515569687,0.04049430787563324,0.3524005115032196,0.12121941149234772,-0.10058774054050446,-0.02944451756775379,0.05483351275324821,0.14488239586353302,0.24801896512508392,0.3349847197532654,0.19490456581115723,0.08645975589752197,0.1913847029209137,-0.18270190060138702,-0.11831138283014297,-0.04935196787118912,0.05102753639221191,-0.07451706379652023,-0.1624630242586136,0.09570284187793732,-0.06324175745248795,0.12427540123462677,-0.01325368508696556,-0.2035980373620987,-0.00349653023295105,0.03387516736984253,0.06506818532943726,-0.05432598665356636,-0.07445508986711502,0.07696862518787384,0.20195767283439636,0.3321952521800995,0.10403811186552048,-0.05583494901657104,-0.05514493957161903,0.16834740340709686,0.38637807965278625,0.2680244445800781,-0.089410200715065,0.03967750445008278,0.34416332840919495,0.12025795876979828,-0.00782925263047218,-0.4604916274547577,0.09562454372644424,-0.2148699015378952,-0.1942184865474701,-0.1583581417798996,-0.09379943460226059,0.14389532804489136,-0.06044499576091766,-0.17582784593105316,-0.15149278938770294,-0.03750940039753914,0.02130559086799622,-0.00174405239522457,-0.05197532474994659,0.06567024439573288,0.03050040081143379,0.20566324889659882,0.01402631681412458,0.2446654886007309,-0.1182752251625061,0.40015748143196106,0.00677981926128268,-0.07943271100521088,-0.2580690383911133,0.2014685720205307,0.22393882274627686,0.02692905813455582,-0.1481403410434723,-0.26965421438217163,0.1516500562429428,-0.02159642055630684,-0.0126700634136796,-0.24542811512947083,-0.07339172810316086,0.15798185765743256,0.00419676816090941,-0.21531090140342712,-0.10504717379808426,0.04919916763901711,0.077762670814991,-0.10542231798171997,-0.01680236123502254,0.02784757129848003,0.0872160792350769,0.0576721616089344,0.1935766190290451,0.16546231508255005,0.27369609475135803,0.37497562170028687,-0.15811476111412048,-0.03463691845536232,-0.15679483115673065,-0.08773034811019897,0.23516017198562622,-0.2125633955001831,-0.01626409031450748,-0.14253579080104828,0.0575568825006485,0.11057636141777039,-0.04785273224115372,-0.19873552024364471,-0.11825055629014969,0.05226999521255493,-0.00198711571283638,-0.1522250771522522,-0.15350137650966644,0.01144343987107277,-0.06099911779165268,-0.1307489573955536,-0.06671414524316788,0.08518868684768677,0.07430756092071533,0.40466439723968506,0.46510863304138184,0.34125399589538574,0.4852237105369568,0.3944064676761627,-0.06030887737870216,-0.00916805397719145,-0.16228759288787842,-0.10251428186893463,0.01743325963616371,0.11690134555101395,-0.1313237100839615,-0.0690622329711914,-0.06575614213943481,0.26881691813468933,0.04153286665678024,-0.0411546565592289,-0.08650459349155426,0.17075304687023163,-0.03938627243041992,-0.04184333607554436,-0.21103103458881378,-0.04438877105712891,-0.08055249601602554,-0.1760588139295578,-0.07395067811012268,0.02927656471729279,0.270812064409256,0.4069461226463318,0.31432655453681946,0.17085476219654083,0.2806588113307953,0.18044982850551605,0.02214911952614784,-0.17846529185771942,-0.4146956503391266,-0.05287031829357147,-0.08481909334659576,-0.14187107980251312,-0.16686512529850006,0.00424185302108526,0.06481124460697174,0.1581401824951172,0.07821857184171677,0.08582725375890732,0.07387781888246536,0.04686122015118599,0.0315234512090683,-0.02964512072503567,-0.23585566878318787,-0.07193940132856369,-0.07841072231531143,-0.12071409076452255,-0.11515691131353378,0.08417122066020966,0.30603477358818054,0.2627182602882385,0.14457330107688904,0.08880703151226044,0.2694907486438751,0.00701232114806771,0.24358215928077698,-0.01346991676837206,-0.14268894493579865,0.0747910663485527,0.19687806069850922,0.06450037658214569,-0.3004648983478546,-0.13251790404319763,-0.13027310371398926,-0.09965448826551437,0.19488708674907684,-0.0288979560136795,-0.00339681236073375,9.0271409135312E-4,0.05463400855660439,0.01264236029237509,-0.1941295862197876,-0.0498308502137661,-0.1237153634428978,-0.19533675909042358,-0.08044660091400146,0.13049249351024628,0.12374135851860046,0.21773287653923035,0.00654633343219757,0.3009604215621948,0.09736377745866776,-0.07300680875778198,0.42456546425819397,0.05976187065243721,0.04103571549057961,0.05538681894540787,0.13070149719715118,-0.07446232438087463,-0.21855701506137848,0.00307586533017457,0.14917932450771332,-0.13819262385368347,0.18288740515708923,0.1781345158815384,-0.14199183881282806,-0.15115268528461456,0.04071994870901108,-0.10055975615978241,-0.2837347090244293,-0.03389450907707214,-0.0094892717897892,-0.13722877204418182,-0.09527159482240677,0.02658636868000031,0.07771310210227966,0.04128042235970497,0.06794210523366928,0.3422788977622986,-0.00472323410212994,0.28200143575668335,-0.00441038003191352,-0.2971894443035126,-0.27022644877433777,-0.12426424026489258,0.07356039434671402,-0.4207949638366699,-0.5600101351737976,-0.3132244348526001,0.00532419281080365,-0.01711929403245449,-0.01281401142477989,0.20509837567806244,0.08569354563951492,0.00826385524123907,-0.04822991043329239,-0.1673683077096939,-0.17576512694358826,-0.04047894105315208,-0.12467925250530243,-0.07359973341226578,-0.13810205459594727,-0.02379024587571621,-0.0218049418181181,-0.06956380605697632,0.18775959312915802,0.21583929657936096,0.07512177526950836,0.24955818057060242,-0.1336774379014969,-0.23218882083892822,-0.02721604891121387,-0.12191293388605118,0.0732651948928833,-0.20707254111766815,-0.2075778841972351,-0.16869229078292847,0.04018612578511238,0.1804634928703308,0.0934833437204361,0.07330577075481415,-0.06023796275258064,-0.0722762942314148,-0.1437748223543167,-0.20103730261325836,-0.2197641134262085,0.02798010967671871,-0.01782297529280186,-0.09667044132947922,-0.03841982781887054,-0.03877512738108635,-0.17791566252708435,0.05062897875905037,0.10018880665302277,-0.01956463418900967,0.11797893792390823,0.00803346186876297,-0.13089315593242645,0.07754087448120117,-0.03569334372878075,-0.01654184982180595,-0.07724015414714813,0.03465220332145691,-0.13788779079914093,-0.08217956125736237,0.1248907819390297,0.10151924937963486,0.0718449130654335,0.02728486992418766,-0.10564081370830536,0.02616896107792854,-0.02352145127952099,-0.01754111051559448,-0.273008793592453,-0.02848072908818722,0.00683545786887407,-0.1552419811487198,-0.11053599417209625,-0.05678617581725121,-0.16818766295909882,0.06045585125684738,0.07541929930448532,-0.01000198721885681,0.3176406919956207,0.12131442129611969,-0.1413029581308365,0.1300523579120636,-0.1130882129073143,0.00732543878257275,0.05770999193191528,-0.016190180554986,0.04499954730272293,-0.135397270321846,-0.10694033652544022,0.22047176957130432,-0.09651821106672287,-0.21183988451957703,0.06690944731235504,0.0249190628528595,-0.16667291522026062,-0.11731027811765671,-0.1825687140226364,-0.03035507723689079,-0.10239561647176743,-0.1065586507320404,-0.06237693503499031,-0.18848073482513428,-0.04579898715019226,0.20983658730983734,0.05278974398970604,0.23449701070785522,0.1433974802494049,-0.08314978331327438,-0.09059234708547592,0.05272074416279793,0.20368562638759613,0.283440500497818,0.23468051850795746,0.01742961257696152,0.08427488058805466,-0.06652435660362244,-0.06226913258433342,-0.11717256158590317,0.11843010783195496,0.1204143539071083,0.08946062624454498,0.05813273042440414,-0.2560296654701233,-0.06543023884296417,-0.18459871411323547,-0.09715624898672104,-0.02439037710428238,-0.1212020218372345,-0.23521217703819275,-0.2314373105764389,0.05211523175239563,0.17175202071666718,0.1701149195432663,0.275341272354126,0.2953856885433197,-0.06896109879016876,-0.10782317072153091,-0.00239065801724792,0.12067925184965134,0.10815928131341934,0.07494295388460159,1.0835562716238E-4,-0.18379203975200653,-0.15408754348754883,0.09271634370088577,0.12660039961338043,0.2310238480567932,0.0723763108253479,0.2397749423980713,0.14931556582450867,-0.2556905150413513,-0.16545428335666656,-0.14565597474575043,-0.05599328130483627,0.062640480697155,-0.16914919018745422,-0.17557471990585327,-0.12347132712602615,-0.19015374779701233,0.14452765882015228,0.11097294837236404,0.20828863978385925,-0.05408789962530136,-0.12943725287914276,-0.03315750509500504,-0.01648303866386414,-0.07944589108228683,-0.02197980135679245,0.29278501868247986,0.16161224246025085,0.05629575997591019,-0.07623632252216339,-0.03301835060119629,0.11329533904790878,0.2247067540884018,0.11339418590068817,0.04966460168361664,0.1657077521085739,-0.10700464248657227,-0.06660749763250351,-0.0650668814778328,-0.02796963043510914,0.14250478148460388,-0.19455361366271973,0.02948819287121296,4.84048796352E-4,-0.03024031780660152,0.02233145758509636,-0.09388129413127899,-0.10007045418024063,-0.09645123779773712,-0.2581302523612976,0.08544428646564484,0.02051341906189919,-0.00929304398596287,-0.01969998702406883,0.12370439618825912,-0.09900425374507904,0.14692991971969604,0.05446221306920052,0.07599307596683502,0.02081087045371532,0.04152892157435417,0.174637570977211,0.13180328905582428,0.37204709649086,0.02085485495626926,0.06741618365049362,0.04148337617516518,-0.04273001477122307,0.00439993757754564,-0.10551563650369644,-0.00694866292178631,0.01873530633747578,0.16865703463554382,-0.22722271084785461,-0.04923267289996147,0.01117188483476639,-0.19935305416584015,-0.16752800345420837,0.20880374312400818,0.04523815587162971,0.00552034610882401,-0.169941708445549,0.1027480885386467,-0.01155074872076511,0.03456083312630653,-0.02528379485011101,-0.01571407541632652,-0.09814191609621048,0.05679405853152275,0.17158225178718567,-0.04305629059672356,0.06203531101346016,0.06985342502593994,-0.15278761088848114,-0.0291019082069397,0.05638952180743217,0.02604451961815357,-0.02946142107248306,0.00313109462149441,-0.00192678393796086,0.36163952946662903,-0.23743058741092682,-0.06328365951776505,0.20190174877643585,-0.21350102126598358,-0.19331105053424835,0.17447471618652344,0.10894918441772461,0.04226310178637505,0.00765017559751868,-0.03596188500523567,-0.03714978694915771,0.00306686060503125,0.17847920954227448,0.32199758291244507,-0.03017192147672176,0.0014094227226451,0.22442245483398438,-0.2536078095436096,0.16350729763507843,0.33760982751846313,-0.14419609308242798,-0.031997449696064,-0.00877758394926786,0.01514965388923883,-0.01573353447020054,-0.11037647724151611,0.07048330456018448,0.22310088574886322,-0.075969398021698,-0.1630684733390808,-0.02563244849443436,-0.19433335959911346,-0.06284289807081223,0.14661236107349396,-0.07039504498243332,-0.02495152316987514,-0.2714918255805969,-0.2332562804222107,-0.04552777484059334,-0.03051548078656197,0.33824700117111206,0.1404736489057541,-0.22663219273090363,0.158649280667305,0.2832593023777008,-0.4212894141674042,0.06217705830931664,0.1482260376214981,-0.195041686296463,-0.19468195736408234,-0.04030489921569824,0.0679449737071991,0.14297473430633545,-0.06211111694574356,0.15763503313064575,0.23055477440357208,-0.05789920687675476,-0.1480761021375656,-0.11473134905099869,-0.29366397857666016,0.07889450341463089,0.00676723383367062,-0.05785363912582397,-0.06345248222351074,-0.35411587357521057,-0.6498932242393494,-0.06272496283054352,0.15974844992160797,0.15107756853103638,8.9977373136207E-4,0.1480567902326584,0.318007230758667,0.16860882937908173,-0.25192809104919434,0.3275376856327057,0.10007841140031815,-0.00789955444633961,0.00819916930049658,0.06402124464511871,0.15467919409275055,0.22376428544521332,0.1959046721458435,0.24123507738113403,0.2567870616912842,0.3027724027633667,0.1703961044549942,-0.28699925541877747,-0.39258506894111633,-0.18171794712543488,-0.22947093844413757,-0.14246270060539246,0.14548242092132568,0.14526166021823883,0.17146259546279907,0.25798550248146057,-0.06663376837968826,-0.13559406995773315,-0.10762516409158707,0.01040315348654985,-0.7098959684371948,-0.24922999739646912,0.32517173886299133,0.5079565644264221,0.32064634561538696,0.09565486758947372,0.118239626288414,0.09841736406087875,0.12278842180967331,0.1495058536529541,0.13553178310394287,0.1577518880367279,0.1632784605026245,0.13034012913703918,0.08501698076725006,-0.0014325671363622,0.04988856986165047,0.02049095369875431,-0.03331021219491959,-0.21090874075889587,-0.27123257517814636,-0.3253374397754669,-0.3489079475402832,-0.36727288365364075,-0.3182736933231354,-0.07116453349590302,0.09469620883464813,0.20278380811214447,0.0495942085981369,0.14616207778453827,0.12596139311790466,0.04357253760099411,0.18818224966526031,0.1640809029340744,0.14967164397239685,0.07536658644676208,0.08462756872177124,0.06978943943977356,0.11613063514232635,0.10251592099666595,0.08534089475870132,0.04950089752674103,0.00546377990394831,-0.01521964464336634,-0.05937298014760017,-0.1721849888563156,-0.26549017429351807,-0.4145485460758209,-0.6032891273498535,-0.7411799430847168,-0.6463895440101624,-0.556846022605896,-0.350963830947876,-0.17140574753284454,-9.782384586288E-5,0.1599031388759613,0.4053601622581482,0.2941964566707611,0.207111194729805,0.14578242599964142,0.13791771233081818,0.13669997453689575,0.122585728764534,0.1295153945684433,0.17941085994243622,0.19005034863948822,0.11718930304050446,0.06849514693021774,0.05134167522192001,0.11256786435842514,-0.08422048389911652,-0.130804181098938,-0.16724368929862976,-0.2564477324485779,-0.2677725851535797,-0.12603336572647095,-0.2521868944168091,-0.25185856223106384,-0.43788978457450867,-0.2800082564353943,-0.163935124874115,-0.04156605899333954,-0.02104986272752285,0.06428030878305435,0.42792147397994995,0.3535512089729309,0.41716650128364563,0.3090587258338928,0.12402713298797607,0.02905940823256969,0.06734032183885574,0.08167973160743713,0.14526447653770447,0.08938195556402206,0.11149424314498901,0.11130528897047043,0.03176391869783401,-0.12159402668476105,-0.10549619048833847,-0.14219659566879272,-0.09436707198619843,-0.23926270008087158,-0.2606363296508789,-0.16615420579910278,-0.13983964920043945,-0.26109230518341064,-0.3360874652862549,-0.20937058329582214,-0.09041645377874374,0.07379207015037537,0.03539830446243286,0.19111379981040955,0.17128543555736542,0.28054293990135193,0.4307965934276581,0.42166802287101746,0.2770896255970001,0.1284634917974472,0.10275887697935104,0.17039187252521515,0.1404777616262436,0.15191742777824402,0.10540923476219177,0.06363536417484283,0.01741284132003784,-0.14993786811828613,-0.2163432538509369,-0.18141193687915802,-0.1958259791135788,-0.23693335056304932,-0.2916581630706787,-0.1652827113866806,-0.09907899796962738,-0.08047804981470108,-0.07433860003948212,-0.06438186764717102,-0.15488314628601074,0.00194628210738301,0.00657906802371144,0.04896087944507599,0.08538264036178589,0.18657658994197845,0.3311046063899994,0.25760623812675476,0.11413289606571198,0.14419884979724884,0.03310095518827438,0.0281152930110693,0.16647404432296753,0.0700266882777214,0.1358657032251358,0.0014157077530399,-0.12591935694217682,-0.26672717928886414,-0.27968630194664,-0.2883468568325043,-0.312293142080307,-0.2359156459569931,-0.1641424149274826,-0.0670604482293129,-0.12314790487289429,-0.05881915241479874,-0.03470920026302338,-0.08975902199745178,-0.1503380537033081,-0.22100616991519928,-0.23120462894439697,-0.05943321064114571,0.22142735123634338,0.25369930267333984,0.3201591670513153,0.25383660197257996,0.27109596133232117,0.3035461902618408,-0.02144206874072552,0.0076380642130971,0.16517595946788788,0.04812553152441978,0.03892805054783821,-0.08388681709766388,-0.1145026758313179,-0.29614460468292236,-0.3415192663669586,-0.4564396142959595,-0.39388716220855713,-0.3326835036277771,-0.23227831721305847,-0.269936740398407,-0.12166064232587814,-0.2650148272514343,0.00611348543316126,0.10366442799568176,0.00169421685859561,-0.09653812646865845,-0.142604261636734,-0.11479201167821884,0.2688267230987549,0.36454296112060547,0.25259143114089966,0.24124224483966827,0.452149361371994,0.3176153600215912,-0.01766609214246273,0.10530193150043488,0.1204642653465271,-0.04160736128687859,-0.04755837470293045,-0.02296820096671581,-0.1937669962644577,-0.4435792565345764,-0.5206736922264099,-0.6218234300613403,-0.5072709918022156,-0.456779420375824,-0.372833251953125,-0.2569998800754547,-0.09809789806604385,-0.08547563850879669,0.24211211502552032,0.10139425098896027,-0.08598128706216812,-0.18288488686084747,-0.3365822434425354,-0.36798593401908875,-0.10869880765676498,0.2995187044143677,0.092629075050354,0.23199604451656342,0.24853475391864777,0.04780265316367149,0.15028579533100128,0.07696294039487839,0.07337141782045364,-0.0085255429148674,-0.13949160277843475,-0.22151030600070953,-0.31465837359428406,-0.4504392445087433,-0.5822687149047852,-0.5861415266990662,-0.5186550617218018,-0.4965660870075226,-0.351487398147583,-0.24705494940280914,-0.03534778952598572,0.1690887063741684,0.3492386043071747,0.35178983211517334,-0.15045076608657837,-0.20726673305034637,-0.10342711210250854,-0.00727264303714037,0.08044879883527756,0.11133348941802979,0.06140835210680962,0.08272425085306168,0.0334370918571949,0.16587206721305847,0.2984994351863861,0.17286518216133118,0.06199666857719421,-0.1459113210439682,-0.1355207860469818,-0.2716817557811737,-0.4286048114299774,-0.6116291880607605,-0.5917637348175049,-0.6030089259147644,-0.49988773465156555,-0.29383760690689087,-0.1682945191860199,-0.187745600938797,0.03395773842930794,0.10907761752605438,0.04339677840471268,0.2354871779680252,-0.25964346528053284,-0.47278398275375366,-0.18333375453948975,0.1812828630208969,0.05605012178421021,0.14914609491825104,0.07062418013811111,-0.23116515576839447,-0.01737223379313946,-0.08310993015766144,0.20728623867034912,0.3286443054676056,0.01466820295900106,-0.2890172600746155,-0.21348392963409424,-0.32082468271255493,-0.39364519715309143,-0.5121603012084961,-0.5104211568832397,-0.4488334059715271,-0.32476919889450073,-0.1998176872730255,-0.19714321196079254,-0.2615599036216736,-0.11020880937576294,0.13159924745559692,-0.10764862596988678,-0.10912064462900162,0.0257522314786911,-0.06123311817646027,0.01594518311321735,0.06618503481149673,0.08591193705797195,0.06684532761573792,-0.0428042933344841,-0.13141684234142303,0.21595557034015656,-0.01297011505812407,0.04215482994914055,0.4824047088623047,-0.00909833796322346,-0.23955631256103516,-0.2796846628189087,-0.19507648050785065,-0.3159789443016052,-0.4306586980819702,-0.23882637917995453,-0.07513120025396347,-0.14211229979991913,-0.14665691554546356,-0.08304004371166229,-0.3922823965549469,-0.17577235400676727,-0.06166884303092957,-0.03422261774539948,-0.04536785930395126,0.06933392584323883,0.11354970932006836,-0.11291474848985672,0.14405421912670135,-0.09861646592617035,0.09966547787189484,0.01052766758948565,0.03383610397577286,0.16547216475009918,0.17120148241519928,0.00661817565560341,0.4790361225605011,-0.06050822511315346,-0.19297410547733307,-0.18627992272377014,-0.22377070784568787,-0.4072764217853546,-0.2464970052242279,0.09091764688491821,0.13263651728630066,-0.11721671372652054,-0.01721068844199181,-0.09451580792665482,0.09297512471675873,-0.16907870769500732,0.05643745139241219,-0.19692334532737732,-0.1506318747997284,0.06366527080535889,-0.19445577263832092,-0.13581211864948273,-0.01425550505518913,-0.1351480484008789,-0.19485050439834595,-0.09679728746414185,0.14047256112098694,0.1826433390378952,0.10518581420183182,0.08704820275306702,0.14435888826847076,0.06358709186315536,0.01564128696918488,-0.1673286408185959,-0.49070078134536743,-0.35964810848236084,0.5426093339920044,0.31781959533691406,0.03888702765107155,-0.15400125086307526,-0.09085872024297714,-0.11263743042945862,-0.38724374771118164,-0.1522989273071289,-0.1326635330915451,-0.05664094910025597,-0.14880378544330597,-0.017255038022995,-0.0741414725780487,0.01553059462457895,0.03655094653367996,-0.17627501487731934,-0.12528805434703827,-0.17577378451824188,-0.04594467952847481,0.00234114425256848,-0.06657624244689941,-0.23988908529281616,-0.1637279987335205,0.22249512374401093,0.11573785543441772,-0.25000467896461487,-0.437092661857605,-0.07656178623437881,0.9277517795562744,0.3513346016407013,0.2505706548690796,-0.10232029110193253,3.8651772774756E-4,-0.18362762033939362,-0.28679361939430237,0.10127432644367218,-0.13741987943649292,-0.1517941951751709,-0.07519694417715073,-0.11411277204751968,-0.05548508837819099,0.17208214104175568,0.08768464624881744,0.24608762562274933,-0.1447591781616211,0.04828203842043877,0.09084724634885788,-0.07701341062784195,-0.19283455610275269,-0.2050693929195404,-0.2454889714717865,0.21032695472240448,0.06330597400665283,-0.3757716119289398,-0.5318720936775208,-0.15500883758068085,0.8668268322944641,0.43503808975219727,0.21241457760334015,0.33140942454338074,0.04259737208485603,-0.0222668070346117,-0.29706403613090515,-0.10182398557662964,0.0234423540532589,-0.14204098284244537,-0.18910425901412964,0.09797924757003784,0.05538765713572502,0.19827032089233398,0.3084234595298767,0.3184829354286194,0.17682714760303497,0.2224999964237213,0.06616596132516861,-0.12304534763097763,-0.24273422360420227,-0.06365524977445602,-9.4080908456817E-4,0.0701984316110611,0.12101118266582489,-0.4143829941749573,-0.5569106936454773,-0.05182069540023804,0.8233093023300171,0.5701684355735779,0.5849601030349731,0.16590569913387299,-0.05983148142695427,-0.24130879342556,-0.11588037014007568,-0.0021072740200907,-0.16508625447750092,-5.1337399054319E-4,-0.13541138172149658,0.08619030565023422,-0.03387870267033577,0.11731066554784775,0.1847846955060959,0.2043277770280838,-0.12378969043493271,0.34253841638565063,0.14534682035446167,-0.0857173427939415,0.04672922939062119,0.1848628968000412,-0.03215843439102173,0.2140178680419922,0.15692225098609924,-0.5943993926048279,-0.44729700684547424,-0.08841806650161743,0.665901780128479,0.4632583558559418,0.41950666904449463,0.16603370010852814,0.17120365798473358,-0.24798445403575897,-0.19450515508651733,-0.09457004070281982,-0.16032731533050537,0.23789319396018982,-0.12006065994501114,-0.03666793182492256,-0.06196664273738861,0.0064825639128685,0.3194045126438141,0.2478964924812317,0.00384041061624885,0.10593842715024948,0.3368200659751892,0.2614719569683075,0.2831006348133087,0.25143688917160034,0.15953420102596283,0.15993721783161163,-0.0359039418399334,-0.577910304069519,-0.3871261179447174,-0.07906045019626617,0.5112728476524353,0.38874977827072144,0.23797908425331116,0.1746600866317749,-0.09688711911439896,-0.32968243956565857,-0.05280147865414619,-0.11168155819177628,-0.17872384190559387,0.18475079536437988,0.06438276171684265,0.01751317270100117,0.132267028093338,-0.01532349176704884,0.11666469275951385,-0.11172348260879517,-0.1353532075881958,0.1806178241968155,0.07602603733539581,0.12138962745666504,0.5355026721954346,0.23985041677951813,0.01395258400589228,0.21225112676620483,0.09492029994726181,-0.3313578963279724,-0.2567858099937439,0.00389432650990784,0.6691662669181824,0.27484768629074097,0.11921777576208115,-0.04045410454273224,0.01064041163772345,0.01791398040950298,-0.13942982256412506,-0.02981944009661674,-0.1335218846797943,0.10680761188268661,-0.1524105817079544,-0.27245473861694336,-0.12079578638076782,0.03683070093393326,-0.10441098362207413,-0.1011742502450943,-0.13191525638103485,-0.06080226600170135,0.12803855538368225,0.1595604419708252,0.5417582392692566,0.03206812962889671,-0.36801832914352417,0.0207710899412632,-0.09161315858364105,-0.3198312819004059,-0.20935912430286407,-0.06955474615097046,0.36364591121673584,0.2813231348991394,0.303311824798584,0.10762350261211395,0.0908740684390068,-0.11526575684547424,-0.05014229193329811,-0.0439884215593338,0.07588690519332886,0.05656272172927856,-0.04084888100624084,-0.019957659766078,-0.4575168490409851,-0.5534272193908691,-0.46237972378730774,-0.1552070677280426,0.09471820294857025,-0.00789982639253139,0.01002381276339293,0.07191961258649826,0.4002496898174286,-4.1576899820939E-4,-0.30157604813575745,0.04520874097943306,-0.031270831823349,-0.3228585124015808,-0.2425326257944107,-0.11824964731931686,0.24294759333133698,0.34053337574005127,0.33190080523490906,0.34241360425949097,0.1312682181596756,0.03188500553369522,0.10931362211704254,-0.0047295349650085,0.16333746910095215,0.09315315634012222,-0.01072803139686584,-0.1516205072402954,-0.37384945154190063,-0.5496392846107483,-0.6126867532730103,-0.18592636287212372,0.10655014216899872,0.02586823515594006,0.07156581431627274,0.15867696702480316,0.29847925901412964,-0.12408369779586792,-0.27067187428474426,0.0642370730638504,-0.12833012640476227,-0.2996619641780853,-0.2301509529352188,-0.00847610551863909,0.14100900292396545,0.17588916420936584,0.3353574573993683,0.23429125547409058,0.18530339002609253,0.10128845274448395,-0.13590970635414124,-0.04344886541366577,0.1285650134086609,-0.00833672657608986,-0.17555561661720276,-0.16853463649749756,-0.4465698301792145,-0.49444636702537537,-0.29702723026275635,-0.07237863540649414,0.01321389246731997,-0.02251395769417286,0.169933021068573,0.20000159740447998,0.4252304434776306,-0.02480337396264076,-0.12893004715442657,0.05952164903283119,0.15379290282726288,-0.0210478026419878,-0.1666393131017685,-0.07733142375946045,-0.02757539786398411,-0.07289153337478638,0.18597924709320068,0.2946561574935913,0.20639029145240784,0.2856936454772949,0.00577508611604571,-0.01283443812280893,0.01872584223747253,-0.02910519018769264,0.01993351802229881,-0.14579449594020844,-0.507088840007782,-0.2583433985710144,-0.20727503299713135,-0.1767660230398178,-0.06492877006530762,-0.03554017841815948,0.06533969193696976,0.17327941954135895,0.39996659755706787,0.1586386263370514,-0.09622848033905029,-0.09885647147893906,0.14669589698314667,0.00994501262903214,0.03378699347376823,-0.04753609001636505,-0.09116989374160767,-0.03768370673060417,0.22533559799194336,0.440491259098053,0.23872381448745728,0.04946788027882576,-0.01032012514770031,-0.04467730969190598,0.08326918631792068,0.186141699552536,-0.02161864563822746,-0.3051624000072479,-0.3344566226005554,-0.26558151841163635,-0.23669566214084625,-0.17636753618717194,0.03705739602446556,0.03778348490595818,0.09817846864461899,0.1667555570602417,0.2678793966770172,0.06878101825714111,-0.00814038328826427,0.11776045709848404,0.15430529415607452,0.07164769619703293,0.13443966209888458,0.15173356235027313,1.1792485747719E-4,-0.08694364875555038,0.1448085457086563,0.23750050365924835,0.1921532303094864,0.15919890999794006,0.0451602004468441,0.09644707292318344,0.18366199731826782,0.14061298966407776,-0.1851232945919037,-0.4650564193725586,-0.2744901478290558,-0.140619695186615,-0.26005473732948303,-0.13766677677631378,-0.1541365534067154,-0.2025873363018036,0.01939624920487404,0.01229798328131437,0.07658485323190689,0.00324198557063937,-0.05015600472688675,0.13306480646133423,0.22317983210086823,0.2501571476459503,0.31498098373413086,0.14785785973072052,0.04048578441143036,-0.12735781073570251,0.07739629596471786,0.24883726239204407,0.25585076212882996,0.2640567421913147,0.17495542764663696,0.1590610146522522,0.24521613121032715,-0.21314913034439087,-0.41168448328971863,-0.36971917748451233,-0.23133516311645508,-0.2754000723361969,-0.2519528567790985,-0.08354140818119049,-0.24324479699134827,-0.27028289437294006,-0.11492321640253067,-0.05430188402533531,0.16512194275856018,0.10887078940868378,0.02131110616028309,0.11633823066949844,0.08233579993247986,0.09284787625074387,0.10310270637273788,0.00596192851662636,-0.0896114781498909,-0.07377272844314575,0.07227734476327896,0.14560650289058685,0.22386907041072845,0.21427477896213531,0.21598851680755615,0.02850178629159927,-0.138683021068573,-0.24832867085933685,-0.21021075546741486,-0.17716069519519806,-0.1449616700410843,-0.0302785150706768,0.01036729011684656,0.00178041961044073,0.00341750076040626,-0.02783023752272129,0.02736393921077251,0.00858353171497583,0.1363380253314972,0.09163970500230789,0.1137140691280365,-0.06383297592401505,-0.07803826779127121,-3.6514177918434E-4,-0.07718125730752945,0.03740901872515678,0.03027189895510674,-0.2286583036184311,-0.29047542810440063,-0.05744821950793266,0.44478729367256165,0.2783820629119873,-0.5875164270401001,0.6219587922096252,-0.31770122051239014,-0.5906854867935181,0.37478625774383545,-0.4961601793766022,-0.6709511876106262,0.36480966210365295,-0.0816066563129425,-0.47288158535957336,-0.2891548275947571,-0.04196302220225334,0.07856208086013794,0.00609984574839473,-0.06501136720180511,-0.12366984784603119,-0.14356040954589844,0.00237863464280963,-0.10375610738992691,0.05451443418860435,-0.01841183379292488,0.16397401690483093,0.09595543146133423,0.18492059409618378,0.12222122400999069,0.5814530253410339,-0.45158520340919495,-0.46551746129989624,-0.40852826833724976,0.887411892414093,0.04620545357465744,-0.3911978006362915,0.45958957076072693,-0.1615779846906662,-0.6497477293014526,-0.6110635995864868,-0.12118728458881378,-0.04293963685631752,-0.22677232325077057,-0.22878967225551605,-0.16144758462905884,-0.09059317409992218,-0.21786010265350342,-0.16959638893604279,-0.06128776073455811,-0.1286994218826294,-0.0534205473959446,-0.01699901558458805,0.06840596348047256,0.190999835729599,0.1622265875339508,0.4093945026397705,0.2835773229598999,0.2708142101764679,0.05538206547498703,0.359671413898468,0.5744229555130005,0.3013463020324707,0.2847404479980469,0.37348073720932007,0.25821492075920105,-0.11884642392396927,0.09296786785125732,-0.18235383927822113,0.08820785582065582,-0.0945022776722908,-0.08525339514017105,0.22546355426311493,-0.29185593128204346,-0.20782646536827087,-0.15781617164611816,-0.08978074789047241,-0.13461163640022278,-0.04220705479383469,-0.10592951625585556,-0.07686423510313034,0.2106756716966629,-0.13909530639648438,0.10363560169935226,0.10373597592115402,0.23174549639225006,0.7111525535583496,0.26207736134529114,-0.28939464688301086,-0.1864490658044815,0.09922126680612564,0.0723874568939209,-0.05494139343500137,0.11265839636325836,-0.08645343780517578,0.02594268694519997,-0.35963311791419983,0.6032465696334839,0.36612674593925476,-0.026259521022439,-0.03053213842213154,-0.11130574345588684,-0.24992336332798004,-0.2406710982322693,-0.15199415385723114,-0.13886457681655884,-0.12012972682714462,-0.12291058152914047,0.10107655823230743,0.04686686024069786,0.08939749002456665,0.04746650531888008,0.2929163873195648,0.5006359219551086,0.14532127976417542,0.00775951659306884,-0.1735936403274536,0.02761313505470753,0.07095175236463547,0.04730449616909027,0.17182913422584534,0.15082992613315582,0.06821608543395996,0.09258164465427399,-0.14114545285701752,-0.1387365609407425,-0.11006028950214386,0.05546724796295166,-0.02882829308509827,-0.21381914615631104,-0.2442944496870041,-0.06745582818984985,-0.08577549457550049,-0.07834786176681519,-0.16842538118362427,0.02665543742477894,0.28234201669692993,0.1544477790594101,-0.07162483036518097,0.00171798467636108,0.26545581221580505,0.08831947296857834,0.00643664645031095,-0.01410101540386677,0.14508825540542603,-0.06616783142089844,-0.3387003242969513,-0.1124858483672142,0.03830761089920998,-0.23025205731391907,-0.0642939880490303,-0.412051260471344,0.0337999053299427,0.00820764992386103,0.10863903909921646,0.13400085270404816,0.16144314408302307,-0.07157432287931442,-0.07642804086208344,-0.09583880007266998,-0.072723388671875,-0.18844299018383026,-0.18971794843673706,-0.0934210866689682,0.07252857089042664,0.18751691281795502,-0.04249522462487221,0.15499405562877655,-0.05087265744805336,-0.02742095664143562,0.03692888468503952,0.08120041340589523,0.09653783589601517,-0.01094286143779755,0.22344502806663513,0.06274677067995071,0.2187245935201645,-0.06697891652584076,-0.213825985789299,0.17804594337940216,0.10102171450853348,-0.01595647074282169,-0.1815686821937561,